digraph Tree {
node [shape=box, style="filled, rounded", color="black", fontname="helvetica"] ;
edge [fontname="helvetica"] ;
0 [label="ThisCarDam <= 2.5\ngini = 0.458\nsamples = 14000\nvalue = [1185, 1131, 1642, 10042]\nclass = y[3]", fillcolor="#e478ed"] ;
1 [label="ThisCarDam <= 1.5\ngini = 0.649\nsamples = 3710\nvalue = [968, 1118, 1624, 0]\nclass = y[2]", fillcolor="#d8ecfa"] ;
0 -> 1 [labeldistance=2.5, labelangle=45, headlabel="True"] ;
2 [label="ThisCarDam <= 0.5\ngini = 0.546\nsamples = 1967\nvalue = [967, 902, 98, 0]\nclass = y[0]", fillcolor="#fdf7f3"] ;
1 -> 2 ;
3 [label="RuggedAuto <= 1.5\ngini = 0.308\nsamples = 1077\nvalue = [882, 150, 45, 0]\nclass = y[0]", fillcolor="#ea9c63"] ;
2 -> 3 ;
4 [label="PropCost <= 1.5\ngini = 0.057\nsamples = 847\nvalue = [822, 25, 0, 0]\nclass = y[0]", fillcolor="#e6853f"] ;
3 -> 4 ;
5 [label="RuggedAuto <= 0.5\ngini = 0.444\nsamples = 30\nvalue = [20, 10, 0, 0]\nclass = y[0]", fillcolor="#f2c09c"] ;
4 -> 5 ;
6 [label="gini = 0.0\nsamples = 8\nvalue = [8, 0, 0, 0]\nclass = y[0]", fillcolor="#e58139"] ;
5 -> 6 ;
7 [label="Theft <= 2.0\ngini = 0.496\nsamples = 22\nvalue = [12, 10, 0, 0]\nclass = y[0]", fillcolor="#fbeade"] ;
5 -> 7 ;
8 [label="Age <= 0.5\ngini = 0.463\nsamples = 11\nvalue = [4, 7, 0, 0]\nclass = y[1]", fillcolor="#b0f4aa"] ;
7 -> 8 ;
9 [label="Antilock <= 1.5\ngini = 0.375\nsamples = 4\nvalue = [3, 1, 0, 0]\nclass = y[0]", fillcolor="#eeab7b"] ;
8 -> 9 ;
10 [label="gini = 0.0\nsamples = 2\nvalue = [2, 0, 0, 0]\nclass = y[0]", fillcolor="#e58139"] ;
9 -> 10 ;
11 [label="MedCost <= 1.0\ngini = 0.5\nsamples = 2\nvalue = [1, 1, 0, 0]\nclass = y[0]", fillcolor="#ffffff"] ;
9 -> 11 ;
12 [label="gini = 0.0\nsamples = 1\nvalue = [1, 0, 0, 0]\nclass = y[0]", fillcolor="#e58139"] ;
11 -> 12 ;
13 [label="gini = 0.0\nsamples = 1\nvalue = [0, 1, 0, 0]\nclass = y[1]", fillcolor="#47e539"] ;
11 -> 13 ;
14 [label="RiskAversion <= 0.5\ngini = 0.245\nsamples = 7\nvalue = [1, 6, 0, 0]\nclass = y[1]", fillcolor="#66e95a"] ;
8 -> 14 ;
15 [label="gini = 0.0\nsamples = 1\nvalue = [1, 0, 0, 0]\nclass = y[0]", fillcolor="#e58139"] ;
14 -> 15 ;
16 [label="gini = 0.0\nsamples = 6\nvalue = [0, 6, 0, 0]\nclass = y[1]", fillcolor="#47e539"] ;
14 -> 16 ;
17 [label="ILiCost <= 0.5\ngini = 0.397\nsamples = 11\nvalue = [8, 3, 0, 0]\nclass = y[0]", fillcolor="#efb083"] ;
7 -> 17 ;
18 [label="DrivQuality <= 2.0\ngini = 0.5\nsamples = 6\nvalue = [3, 3, 0, 0]\nclass = y[0]", fillcolor="#ffffff"] ;
17 -> 18 ;
19 [label="gini = 0.0\nsamples = 2\nvalue = [2, 0, 0, 0]\nclass = y[0]", fillcolor="#e58139"] ;
18 -> 19 ;
20 [label="RiskAversion <= 1.5\ngini = 0.375\nsamples = 4\nvalue = [1, 3, 0, 0]\nclass = y[1]", fillcolor="#84ee7b"] ;
18 -> 20 ;
21 [label="gini = 0.0\nsamples = 3\nvalue = [0, 3, 0, 0]\nclass = y[1]", fillcolor="#47e539"] ;
20 -> 21 ;
22 [label="gini = 0.0\nsamples = 1\nvalue = [1, 0, 0, 0]\nclass = y[0]", fillcolor="#e58139"] ;
20 -> 22 ;
23 [label="gini = 0.0\nsamples = 5\nvalue = [5, 0, 0, 0]\nclass = y[0]", fillcolor="#e58139"] ;
17 -> 23 ;
24 [label="OtherCar <= 0.5\ngini = 0.036\nsamples = 817\nvalue = [802, 15, 0, 0]\nclass = y[0]", fillcolor="#e5833d"] ;
4 -> 24 ;
25 [label="OtherCarCost <= 0.5\ngini = 0.444\nsamples = 3\nvalue = [1, 2, 0, 0]\nclass = y[1]", fillcolor="#a3f29c"] ;
24 -> 25 ;
26 [label="gini = 0.0\nsamples = 1\nvalue = [1, 0, 0, 0]\nclass = y[0]", fillcolor="#e58139"] ;
25 -> 26 ;
27 [label="gini = 0.0\nsamples = 2\nvalue = [0, 2, 0, 0]\nclass = y[1]", fillcolor="#47e539"] ;
25 -> 27 ;
28 [label="RuggedAuto <= 0.5\ngini = 0.031\nsamples = 814\nvalue = [801, 13, 0, 0]\nclass = y[0]", fillcolor="#e5833c"] ;
24 -> 28 ;
29 [label="gini = 0.0\nsamples = 494\nvalue = [494, 0, 0, 0]\nclass = y[0]", fillcolor="#e58139"] ;
28 -> 29 ;
30 [label="Accident <= 2.5\ngini = 0.078\nsamples = 320\nvalue = [307, 13, 0, 0]\nclass = y[0]", fillcolor="#e68641"] ;
28 -> 30 ;
31 [label="OtherCar <= 2.5\ngini = 0.068\nsamples = 312\nvalue = [301, 11, 0, 0]\nclass = y[0]", fillcolor="#e68640"] ;
30 -> 31 ;
32 [label="RiskAversion <= 1.5\ngini = 0.375\nsamples = 8\nvalue = [6, 2, 0, 0]\nclass = y[0]", fillcolor="#eeab7b"] ;
31 -> 32 ;
33 [label="gini = 0.0\nsamples = 4\nvalue = [4, 0, 0, 0]\nclass = y[0]", fillcolor="#e58139"] ;
32 -> 33 ;
34 [label="CarValue <= 0.5\ngini = 0.5\nsamples = 4\nvalue = [2, 2, 0, 0]\nclass = y[0]", fillcolor="#ffffff"] ;
32 -> 34 ;
35 [label="gini = 0.0\nsamples = 1\nvalue = [0, 1, 0, 0]\nclass = y[1]", fillcolor="#47e539"] ;
34 -> 35 ;
36 [label="Theft <= 2.0\ngini = 0.444\nsamples = 3\nvalue = [2, 1, 0, 0]\nclass = y[0]", fillcolor="#f2c09c"] ;
34 -> 36 ;
37 [label="gini = 0.0\nsamples = 1\nvalue = [0, 1, 0, 0]\nclass = y[1]", fillcolor="#47e539"] ;
36 -> 37 ;
38 [label="gini = 0.0\nsamples = 2\nvalue = [2, 0, 0, 0]\nclass = y[0]", fillcolor="#e58139"] ;
36 -> 38 ;
39 [label="Cushioning <= 0.5\ngini = 0.057\nsamples = 304\nvalue = [295, 9, 0, 0]\nclass = y[0]", fillcolor="#e6853f"] ;
31 -> 39 ;
40 [label="MakeModel <= 0.5\ngini = 0.014\nsamples = 137\nvalue = [136, 1, 0, 0]\nclass = y[0]", fillcolor="#e5823a"] ;
39 -> 40 ;
41 [label="Antilock <= 0.5\ngini = 0.444\nsamples = 3\nvalue = [2, 1, 0, 0]\nclass = y[0]", fillcolor="#f2c09c"] ;
40 -> 41 ;
42 [label="gini = 0.0\nsamples = 2\nvalue = [2, 0, 0, 0]\nclass = y[0]", fillcolor="#e58139"] ;
41 -> 42 ;
43 [label="gini = 0.0\nsamples = 1\nvalue = [0, 1, 0, 0]\nclass = y[1]", fillcolor="#47e539"] ;
41 -> 43 ;
44 [label="gini = 0.0\nsamples = 134\nvalue = [134, 0, 0, 0]\nclass = y[0]", fillcolor="#e58139"] ;
40 -> 44 ;
45 [label="SocioEcon <= 0.5\ngini = 0.091\nsamples = 167\nvalue = [159, 8, 0, 0]\nclass = y[0]", fillcolor="#e68743"] ;
39 -> 45 ;
46 [label="GoodStudent <= 0.5\ngini = 0.158\nsamples = 58\nvalue = [53, 5, 0, 0]\nclass = y[0]", fillcolor="#e78d4c"] ;
45 -> 46 ;
47 [label="ILiCost <= 0.5\ngini = 0.103\nsamples = 55\nvalue = [52, 3, 0, 0]\nclass = y[0]", fillcolor="#e68844"] ;
46 -> 47 ;
48 [label="gini = 0.0\nsamples = 34\nvalue = [34, 0, 0, 0]\nclass = y[0]", fillcolor="#e58139"] ;
47 -> 48 ;
49 [label="VehicleYear <= 0.5\ngini = 0.245\nsamples = 21\nvalue = [18, 3, 0, 0]\nclass = y[0]", fillcolor="#e9965a"] ;
47 -> 49 ;
50 [label="Age <= 0.5\ngini = 0.18\nsamples = 20\nvalue = [18, 2, 0, 0]\nclass = y[0]", fillcolor="#e88f4f"] ;
49 -> 50 ;
51 [label="DrivQuality <= 1.0\ngini = 0.5\nsamples = 2\nvalue = [1, 1, 0, 0]\nclass = y[0]", fillcolor="#ffffff"] ;
50 -> 51 ;
52 [label="gini = 0.0\nsamples = 1\nvalue = [1, 0, 0, 0]\nclass = y[0]", fillcolor="#e58139"] ;
51 -> 52 ;
53 [label="gini = 0.0\nsamples = 1\nvalue = [0, 1, 0, 0]\nclass = y[1]", fillcolor="#47e539"] ;
51 -> 53 ;
54 [label="Mileage <= 0.5\ngini = 0.105\nsamples = 18\nvalue = [17, 1, 0, 0]\nclass = y[0]", fillcolor="#e78845"] ;
50 -> 54 ;
55 [label="gini = 0.0\nsamples = 11\nvalue = [11, 0, 0, 0]\nclass = y[0]", fillcolor="#e58139"] ;
54 -> 55 ;
56 [label="DrivQuality <= 2.5\ngini = 0.245\nsamples = 7\nvalue = [6, 1, 0, 0]\nclass = y[0]", fillcolor="#e9965a"] ;
54 -> 56 ;
57 [label="gini = 0.0\nsamples = 4\nvalue = [4, 0, 0, 0]\nclass = y[0]", fillcolor="#e58139"] ;
56 -> 57 ;
58 [label="Theft <= 3.5\ngini = 0.444\nsamples = 3\nvalue = [2, 1, 0, 0]\nclass = y[0]", fillcolor="#f2c09c"] ;
56 -> 58 ;
59 [label="gini = 0.0\nsamples = 1\nvalue = [0, 1, 0, 0]\nclass = y[1]", fillcolor="#47e539"] ;
58 -> 59 ;
60 [label="gini = 0.0\nsamples = 2\nvalue = [2, 0, 0, 0]\nclass = y[0]", fillcolor="#e58139"] ;
58 -> 60 ;
61 [label="gini = 0.0\nsamples = 1\nvalue = [0, 1, 0, 0]\nclass = y[1]", fillcolor="#47e539"] ;
49 -> 61 ;
62 [label="Accident <= 0.5\ngini = 0.444\nsamples = 3\nvalue = [1, 2, 0, 0]\nclass = y[1]", fillcolor="#a3f29c"] ;
46 -> 62 ;
63 [label="gini = 0.0\nsamples = 1\nvalue = [1, 0, 0, 0]\nclass = y[0]", fillcolor="#e58139"] ;
62 -> 63 ;
64 [label="gini = 0.0\nsamples = 2\nvalue = [0, 2, 0, 0]\nclass = y[1]", fillcolor="#47e539"] ;
62 -> 64 ;
65 [label="RiskAversion <= 0.5\ngini = 0.054\nsamples = 109\nvalue = [106, 3, 0, 0]\nclass = y[0]", fillcolor="#e6853f"] ;
45 -> 65 ;
66 [label="Mileage <= 0.5\ngini = 0.124\nsamples = 45\nvalue = [42, 3, 0, 0]\nclass = y[0]", fillcolor="#e78a47"] ;
65 -> 66 ;
67 [label="gini = 0.0\nsamples = 14\nvalue = [14, 0, 0, 0]\nclass = y[0]", fillcolor="#e58139"] ;
66 -> 67 ;
68 [label="Theft <= 2.0\ngini = 0.175\nsamples = 31\nvalue = [28, 3, 0, 0]\nclass = y[0]", fillcolor="#e88e4e"] ;
66 -> 68 ;
69 [label="ILiCost <= 1.5\ngini = 0.137\nsamples = 27\nvalue = [25, 2, 0, 0]\nclass = y[0]", fillcolor="#e78b49"] ;
68 -> 69 ;
70 [label="ILiCost <= 0.5\ngini = 0.188\nsamples = 19\nvalue = [17, 2, 0, 0]\nclass = y[0]", fillcolor="#e89050"] ;
69 -> 70 ;
71 [label="CarValue <= 0.5\ngini = 0.105\nsamples = 18\nvalue = [17, 1, 0, 0]\nclass = y[0]", fillcolor="#e78845"] ;
70 -> 71 ;
72 [label="DrivQuality <= 2.0\ngini = 0.245\nsamples = 7\nvalue = [6, 1, 0, 0]\nclass = y[0]", fillcolor="#e9965a"] ;
71 -> 72 ;
73 [label="gini = 0.0\nsamples = 4\nvalue = [4, 0, 0, 0]\nclass = y[0]", fillcolor="#e58139"] ;
72 -> 73 ;
74 [label="MedCost <= 1.0\ngini = 0.444\nsamples = 3\nvalue = [2, 1, 0, 0]\nclass = y[0]", fillcolor="#f2c09c"] ;
72 -> 74 ;
75 [label="gini = 0.0\nsamples = 1\nvalue = [1, 0, 0, 0]\nclass = y[0]", fillcolor="#e58139"] ;
74 -> 75 ;
76 [label="AntiTheft <= 2.5\ngini = 0.5\nsamples = 2\nvalue = [1, 1, 0, 0]\nclass = y[0]", fillcolor="#ffffff"] ;
74 -> 76 ;
77 [label="gini = 0.0\nsamples = 1\nvalue = [1, 0, 0, 0]\nclass = y[0]", fillcolor="#e58139"] ;
76 -> 77 ;
78 [label="gini = 0.0\nsamples = 1\nvalue = [0, 1, 0, 0]\nclass = y[1]", fillcolor="#47e539"] ;
76 -> 78 ;
79 [label="gini = 0.0\nsamples = 11\nvalue = [11, 0, 0, 0]\nclass = y[0]", fillcolor="#e58139"] ;
71 -> 79 ;
80 [label="gini = 0.0\nsamples = 1\nvalue = [0, 1, 0, 0]\nclass = y[1]", fillcolor="#47e539"] ;
70 -> 80 ;
81 [label="gini = 0.0\nsamples = 8\nvalue = [8, 0, 0, 0]\nclass = y[0]", fillcolor="#e58139"] ;
69 -> 81 ;
82 [label="HomeBase <= 0.5\ngini = 0.375\nsamples = 4\nvalue = [3, 1, 0, 0]\nclass = y[0]", fillcolor="#eeab7b"] ;
68 -> 82 ;
83 [label="gini = 0.0\nsamples = 3\nvalue = [3, 0, 0, 0]\nclass = y[0]", fillcolor="#e58139"] ;
82 -> 83 ;
84 [label="gini = 0.0\nsamples = 1\nvalue = [0, 1, 0, 0]\nclass = y[1]", fillcolor="#47e539"] ;
82 -> 84 ;
85 [label="gini = 0.0\nsamples = 64\nvalue = [64, 0, 0, 0]\nclass = y[0]", fillcolor="#e58139"] ;
65 -> 85 ;
86 [label="DrivQuality <= 0.5\ngini = 0.375\nsamples = 8\nvalue = [6, 2, 0, 0]\nclass = y[0]", fillcolor="#eeab7b"] ;
30 -> 86 ;
87 [label="gini = 0.0\nsamples = 1\nvalue = [0, 1, 0, 0]\nclass = y[1]", fillcolor="#47e539"] ;
86 -> 87 ;
88 [label="OtherCarCost <= 0.5\ngini = 0.245\nsamples = 7\nvalue = [6, 1, 0, 0]\nclass = y[0]", fillcolor="#e9965a"] ;
86 -> 88 ;
89 [label="VehicleYear <= 0.5\ngini = 0.444\nsamples = 3\nvalue = [2, 1, 0, 0]\nclass = y[0]", fillcolor="#f2c09c"] ;
88 -> 89 ;
90 [label="gini = 0.0\nsamples = 1\nvalue = [0, 1, 0, 0]\nclass = y[1]", fillcolor="#47e539"] ;
89 -> 90 ;
91 [label="gini = 0.0\nsamples = 2\nvalue = [2, 0, 0, 0]\nclass = y[0]", fillcolor="#e58139"] ;
89 -> 91 ;
92 [label="gini = 0.0\nsamples = 4\nvalue = [4, 0, 0, 0]\nclass = y[0]", fillcolor="#e58139"] ;
88 -> 92 ;
93 [label="PropCost <= 1.5\ngini = 0.598\nsamples = 230\nvalue = [60, 125, 45, 0]\nclass = y[1]", fillcolor="#b9f5b3"] ;
3 -> 93 ;
94 [label="Airbag <= 1.5\ngini = 0.502\nsamples = 118\nvalue = [3, 70, 45, 0]\nclass = y[1]", fillcolor="#c0f6bb"] ;
93 -> 94 ;
95 [label="Age <= 0.5\ngini = 0.375\nsamples = 8\nvalue = [0, 2, 6, 0]\nclass = y[2]", fillcolor="#7bbeee"] ;
94 -> 95 ;
96 [label="DrivQuality <= 2.0\ngini = 0.444\nsamples = 3\nvalue = [0, 2, 1, 0]\nclass = y[1]", fillcolor="#a3f29c"] ;
95 -> 96 ;
97 [label="gini = 0.0\nsamples = 2\nvalue = [0, 2, 0, 0]\nclass = y[1]", fillcolor="#47e539"] ;
96 -> 97 ;
98 [label="gini = 0.0\nsamples = 1\nvalue = [0, 0, 1, 0]\nclass = y[2]", fillcolor="#399de5"] ;
96 -> 98 ;
99 [label="gini = 0.0\nsamples = 5\nvalue = [0, 0, 5, 0]\nclass = y[2]", fillcolor="#399de5"] ;
95 -> 99 ;
100 [label="MedCost <= 1.0\ngini = 0.491\nsamples = 110\nvalue = [3, 68, 39, 0]\nclass = y[1]", fillcolor="#b4f4ae"] ;
94 -> 100 ;
101 [label="DrivQuality <= 1.5\ngini = 0.444\nsamples = 71\nvalue = [2, 49, 20, 0]\nclass = y[1]", fillcolor="#96f08e"] ;
100 -> 101 ;
102 [label="Age <= 1.5\ngini = 0.521\nsamples = 41\nvalue = [2, 24, 15, 0]\nclass = y[1]", fillcolor="#bff6ba"] ;
101 -> 102 ;
103 [label="RiskAversion <= 1.5\ngini = 0.499\nsamples = 38\nvalue = [2, 24, 12, 0]\nclass = y[1]", fillcolor="#aaf3a4"] ;
102 -> 103 ;
104 [label="OtherCarCost <= 0.5\ngini = 0.593\nsamples = 18\nvalue = [2, 8, 8, 0]\nclass = y[1]", fillcolor="#ffffff"] ;
103 -> 104 ;
105 [label="CarValue <= 1.0\ngini = 0.32\nsamples = 5\nvalue = [0, 4, 1, 0]\nclass = y[1]", fillcolor="#75ec6a"] ;
104 -> 105 ;
106 [label="gini = 0.0\nsamples = 1\nvalue = [0, 0, 1, 0]\nclass = y[2]", fillcolor="#399de5"] ;
105 -> 106 ;
107 [label="gini = 0.0\nsamples = 4\nvalue = [0, 4, 0, 0]\nclass = y[1]", fillcolor="#47e539"] ;
105 -> 107 ;
108 [label="CarValue <= 0.5\ngini = 0.592\nsamples = 13\nvalue = [2, 4, 7, 0]\nclass = y[2]", fillcolor="#bddef6"] ;
104 -> 108 ;
109 [label="ILiCost <= 1.0\ngini = 0.444\nsamples = 3\nvalue = [1, 2, 0, 0]\nclass = y[1]", fillcolor="#a3f29c"] ;
108 -> 109 ;
110 [label="gini = 0.0\nsamples = 2\nvalue = [0, 2, 0, 0]\nclass = y[1]", fillcolor="#47e539"] ;
109 -> 110 ;
111 [label="gini = 0.0\nsamples = 1\nvalue = [1, 0, 0, 0]\nclass = y[0]", fillcolor="#e58139"] ;
109 -> 111 ;
112 [label="HomeBase <= 0.5\ngini = 0.46\nsamples = 10\nvalue = [1, 2, 7, 0]\nclass = y[2]", fillcolor="#83c2ef"] ;
108 -> 112 ;
113 [label="gini = 0.0\nsamples = 4\nvalue = [0, 0, 4, 0]\nclass = y[2]", fillcolor="#399de5"] ;
112 -> 113 ;
114 [label="CarValue <= 1.5\ngini = 0.611\nsamples = 6\nvalue = [1, 2, 3, 0]\nclass = y[2]", fillcolor="#cee6f8"] ;
112 -> 114 ;
115 [label="gini = 0.0\nsamples = 1\nvalue = [1, 0, 0, 0]\nclass = y[0]", fillcolor="#e58139"] ;
114 -> 115 ;
116 [label="Mileage <= 0.5\ngini = 0.48\nsamples = 5\nvalue = [0, 2, 3, 0]\nclass = y[2]", fillcolor="#bddef6"] ;
114 -> 116 ;
117 [label="Cushioning <= 0.5\ngini = 0.444\nsamples = 3\nvalue = [0, 2, 1, 0]\nclass = y[1]", fillcolor="#a3f29c"] ;
116 -> 117 ;
118 [label="gini = 0.0\nsamples = 1\nvalue = [0, 0, 1, 0]\nclass = y[2]", fillcolor="#399de5"] ;
117 -> 118 ;
119 [label="gini = 0.0\nsamples = 2\nvalue = [0, 2, 0, 0]\nclass = y[1]", fillcolor="#47e539"] ;
117 -> 119 ;
120 [label="gini = 0.0\nsamples = 2\nvalue = [0, 0, 2, 0]\nclass = y[2]", fillcolor="#399de5"] ;
116 -> 120 ;
121 [label="GoodStudent <= 0.5\ngini = 0.32\nsamples = 20\nvalue = [0, 16, 4, 0]\nclass = y[1]", fillcolor="#75ec6a"] ;
103 -> 121 ;
122 [label="SocioEcon <= 1.0\ngini = 0.266\nsamples = 19\nvalue = [0, 16, 3, 0]\nclass = y[1]", fillcolor="#6aea5e"] ;
121 -> 122 ;
123 [label="HomeBase <= 0.5\ngini = 0.375\nsamples = 12\nvalue = [0, 9, 3, 0]\nclass = y[1]", fillcolor="#84ee7b"] ;
122 -> 123 ;
124 [label="Mileage <= 0.5\ngini = 0.198\nsamples = 9\nvalue = [0, 8, 1, 0]\nclass = y[1]", fillcolor="#5ee852"] ;
123 -> 124 ;
125 [label="gini = 0.0\nsamples = 7\nvalue = [0, 7, 0, 0]\nclass = y[1]", fillcolor="#47e539"] ;
124 -> 125 ;
126 [label="AntiTheft <= 1.0\ngini = 0.5\nsamples = 2\nvalue = [0, 1, 1, 0]\nclass = y[1]", fillcolor="#ffffff"] ;
124 -> 126 ;
127 [label="gini = 0.0\nsamples = 1\nvalue = [0, 0, 1, 0]\nclass = y[2]", fillcolor="#399de5"] ;
126 -> 127 ;
128 [label="gini = 0.0\nsamples = 1\nvalue = [0, 1, 0, 0]\nclass = y[1]", fillcolor="#47e539"] ;
126 -> 128 ;
129 [label="Theft <= 2.0\ngini = 0.444\nsamples = 3\nvalue = [0, 1, 2, 0]\nclass = y[2]", fillcolor="#9ccef2"] ;
123 -> 129 ;
130 [label="gini = 0.0\nsamples = 2\nvalue = [0, 0, 2, 0]\nclass = y[2]", fillcolor="#399de5"] ;
129 -> 130 ;
131 [label="gini = 0.0\nsamples = 1\nvalue = [0, 1, 0, 0]\nclass = y[1]", fillcolor="#47e539"] ;
129 -> 131 ;
132 [label="gini = 0.0\nsamples = 7\nvalue = [0, 7, 0, 0]\nclass = y[1]", fillcolor="#47e539"] ;
122 -> 132 ;
133 [label="gini = 0.0\nsamples = 1\nvalue = [0, 0, 1, 0]\nclass = y[2]", fillcolor="#399de5"] ;
121 -> 133 ;
134 [label="gini = 0.0\nsamples = 3\nvalue = [0, 0, 3, 0]\nclass = y[2]", fillcolor="#399de5"] ;
102 -> 134 ;
135 [label="AntiTheft <= 1.0\ngini = 0.278\nsamples = 30\nvalue = [0, 25, 5, 0]\nclass = y[1]", fillcolor="#6cea61"] ;
101 -> 135 ;
136 [label="gini = 0.0\nsamples = 17\nvalue = [0, 17, 0, 0]\nclass = y[1]", fillcolor="#47e539"] ;
135 -> 136 ;
137 [label="CarValue <= 2.5\ngini = 0.473\nsamples = 13\nvalue = [0, 8, 5, 0]\nclass = y[1]", fillcolor="#baf5b5"] ;
135 -> 137 ;
138 [label="Cushioning <= 0.5\ngini = 0.494\nsamples = 9\nvalue = [0, 4, 5, 0]\nclass = y[2]", fillcolor="#d7ebfa"] ;
137 -> 138 ;
139 [label="gini = 0.0\nsamples = 3\nvalue = [0, 3, 0, 0]\nclass = y[1]", fillcolor="#47e539"] ;
138 -> 139 ;
140 [label="GoodStudent <= 0.5\ngini = 0.278\nsamples = 6\nvalue = [0, 1, 5, 0]\nclass = y[2]", fillcolor="#61b1ea"] ;
138 -> 140 ;
141 [label="gini = 0.0\nsamples = 4\nvalue = [0, 0, 4, 0]\nclass = y[2]", fillcolor="#399de5"] ;
140 -> 141 ;
142 [label="SocioEcon <= 0.5\ngini = 0.5\nsamples = 2\nvalue = [0, 1, 1, 0]\nclass = y[1]", fillcolor="#ffffff"] ;
140 -> 142 ;
143 [label="gini = 0.0\nsamples = 1\nvalue = [0, 0, 1, 0]\nclass = y[2]", fillcolor="#399de5"] ;
142 -> 143 ;
144 [label="gini = 0.0\nsamples = 1\nvalue = [0, 1, 0, 0]\nclass = y[1]", fillcolor="#47e539"] ;
142 -> 144 ;
145 [label="gini = 0.0\nsamples = 4\nvalue = [0, 4, 0, 0]\nclass = y[1]", fillcolor="#47e539"] ;
137 -> 145 ;
146 [label="Age <= 1.5\ngini = 0.525\nsamples = 39\nvalue = [1, 19, 19, 0]\nclass = y[1]", fillcolor="#ffffff"] ;
100 -> 146 ;
147 [label="ILiCost <= 1.5\ngini = 0.521\nsamples = 35\nvalue = [1, 15, 19, 0]\nclass = y[2]", fillcolor="#d7ebfa"] ;
146 -> 147 ;
148 [label="OtherCar <= 2.5\ngini = 0.531\nsamples = 31\nvalue = [1, 15, 15, 0]\nclass = y[1]", fillcolor="#ffffff"] ;
147 -> 148 ;
149 [label="gini = 0.0\nsamples = 3\nvalue = [0, 0, 3, 0]\nclass = y[2]", fillcolor="#399de5"] ;
148 -> 149 ;
150 [label="HomeBase <= 0.5\ngini = 0.528\nsamples = 28\nvalue = [1, 15, 12, 0]\nclass = y[1]", fillcolor="#dcfada"] ;
148 -> 150 ;
151 [label="DrivQuality <= 1.5\ngini = 0.455\nsamples = 20\nvalue = [0, 13, 7, 0]\nclass = y[1]", fillcolor="#aaf3a4"] ;
150 -> 151 ;
152 [label="Theft <= 2.5\ngini = 0.375\nsamples = 12\nvalue = [0, 9, 3, 0]\nclass = y[1]", fillcolor="#84ee7b"] ;
151 -> 152 ;
153 [label="PropCost <= 0.5\ngini = 0.298\nsamples = 11\nvalue = [0, 9, 2, 0]\nclass = y[1]", fillcolor="#70eb65"] ;
152 -> 153 ;
154 [label="DrivQuality <= 0.5\ngini = 0.5\nsamples = 4\nvalue = [0, 2, 2, 0]\nclass = y[1]", fillcolor="#ffffff"] ;
153 -> 154 ;
155 [label="gini = 0.0\nsamples = 1\nvalue = [0, 0, 1, 0]\nclass = y[2]", fillcolor="#399de5"] ;
154 -> 155 ;
156 [label="RiskAversion <= 1.0\ngini = 0.444\nsamples = 3\nvalue = [0, 2, 1, 0]\nclass = y[1]", fillcolor="#a3f29c"] ;
154 -> 156 ;
157 [label="gini = 0.0\nsamples = 1\nvalue = [0, 0, 1, 0]\nclass = y[2]", fillcolor="#399de5"] ;
156 -> 157 ;
158 [label="gini = 0.0\nsamples = 2\nvalue = [0, 2, 0, 0]\nclass = y[1]", fillcolor="#47e539"] ;
156 -> 158 ;
159 [label="gini = 0.0\nsamples = 7\nvalue = [0, 7, 0, 0]\nclass = y[1]", fillcolor="#47e539"] ;
153 -> 159 ;
160 [label="gini = 0.0\nsamples = 1\nvalue = [0, 0, 1, 0]\nclass = y[2]", fillcolor="#399de5"] ;
152 -> 160 ;
161 [label="SocioEcon <= 0.5\ngini = 0.5\nsamples = 8\nvalue = [0, 4, 4, 0]\nclass = y[1]", fillcolor="#ffffff"] ;
151 -> 161 ;
162 [label="Antilock <= 1.5\ngini = 0.32\nsamples = 5\nvalue = [0, 4, 1, 0]\nclass = y[1]", fillcolor="#75ec6a"] ;
161 -> 162 ;
163 [label="gini = 0.0\nsamples = 1\nvalue = [0, 0, 1, 0]\nclass = y[2]", fillcolor="#399de5"] ;
162 -> 163 ;
164 [label="gini = 0.0\nsamples = 4\nvalue = [0, 4, 0, 0]\nclass = y[1]", fillcolor="#47e539"] ;
162 -> 164 ;
165 [label="gini = 0.0\nsamples = 3\nvalue = [0, 0, 3, 0]\nclass = y[2]", fillcolor="#399de5"] ;
161 -> 165 ;
166 [label="AntiTheft <= 1.0\ngini = 0.531\nsamples = 8\nvalue = [1, 2, 5, 0]\nclass = y[2]", fillcolor="#9ccef2"] ;
150 -> 166 ;
167 [label="SocioEcon <= 1.0\ngini = 0.5\nsamples = 2\nvalue = [1, 1, 0, 0]\nclass = y[0]", fillcolor="#ffffff"] ;
166 -> 167 ;
168 [label="gini = 0.0\nsamples = 1\nvalue = [1, 0, 0, 0]\nclass = y[0]", fillcolor="#e58139"] ;
167 -> 168 ;
169 [label="gini = 0.0\nsamples = 1\nvalue = [0, 1, 0, 0]\nclass = y[1]", fillcolor="#47e539"] ;
167 -> 169 ;
170 [label="CarValue <= 0.5\ngini = 0.278\nsamples = 6\nvalue = [0, 1, 5, 0]\nclass = y[2]", fillcolor="#61b1ea"] ;
166 -> 170 ;
171 [label="gini = 0.0\nsamples = 1\nvalue = [0, 1, 0, 0]\nclass = y[1]", fillcolor="#47e539"] ;
170 -> 171 ;
172 [label="gini = 0.0\nsamples = 5\nvalue = [0, 0, 5, 0]\nclass = y[2]", fillcolor="#399de5"] ;
170 -> 172 ;
173 [label="gini = 0.0\nsamples = 4\nvalue = [0, 0, 4, 0]\nclass = y[2]", fillcolor="#399de5"] ;
147 -> 173 ;
174 [label="gini = 0.0\nsamples = 4\nvalue = [0, 4, 0, 0]\nclass = y[1]", fillcolor="#47e539"] ;
146 -> 174 ;
175 [label="Airbag <= 2.5\ngini = 0.5\nsamples = 112\nvalue = [57, 55, 0, 0]\nclass = y[0]", fillcolor="#fefbf8"] ;
93 -> 175 ;
176 [label="Airbag <= 1.5\ngini = 0.153\nsamples = 12\nvalue = [1, 11, 0, 0]\nclass = y[1]", fillcolor="#58e74b"] ;
175 -> 176 ;
177 [label="gini = 0.0\nsamples = 7\nvalue = [0, 7, 0, 0]\nclass = y[1]", fillcolor="#47e539"] ;
176 -> 177 ;
178 [label="CarValue <= 1.0\ngini = 0.32\nsamples = 5\nvalue = [1, 4, 0, 0]\nclass = y[1]", fillcolor="#75ec6a"] ;
176 -> 178 ;
179 [label="gini = 0.0\nsamples = 3\nvalue = [0, 3, 0, 0]\nclass = y[1]", fillcolor="#47e539"] ;
178 -> 179 ;
180 [label="MakeModel <= 1.5\ngini = 0.5\nsamples = 2\nvalue = [1, 1, 0, 0]\nclass = y[0]", fillcolor="#ffffff"] ;
178 -> 180 ;
181 [label="gini = 0.0\nsamples = 1\nvalue = [0, 1, 0, 0]\nclass = y[1]", fillcolor="#47e539"] ;
180 -> 181 ;
182 [label="gini = 0.0\nsamples = 1\nvalue = [1, 0, 0, 0]\nclass = y[0]", fillcolor="#e58139"] ;
180 -> 182 ;
183 [label="Antilock <= 1.5\ngini = 0.493\nsamples = 100\nvalue = [56, 44, 0, 0]\nclass = y[0]", fillcolor="#f9e4d5"] ;
175 -> 183 ;
184 [label="RiskAversion <= 1.5\ngini = 0.351\nsamples = 22\nvalue = [17, 5, 0, 0]\nclass = y[0]", fillcolor="#eda673"] ;
183 -> 184 ;
185 [label="Accident <= 1.5\ngini = 0.459\nsamples = 14\nvalue = [9, 5, 0, 0]\nclass = y[0]", fillcolor="#f3c7a7"] ;
184 -> 185 ;
186 [label="OtherCarCost <= 0.5\ngini = 0.496\nsamples = 11\nvalue = [6, 5, 0, 0]\nclass = y[0]", fillcolor="#fbeade"] ;
185 -> 186 ;
187 [label="SocioEcon <= 1.5\ngini = 0.32\nsamples = 5\nvalue = [4, 1, 0, 0]\nclass = y[0]", fillcolor="#eca06a"] ;
186 -> 187 ;
188 [label="gini = 0.0\nsamples = 4\nvalue = [4, 0, 0, 0]\nclass = y[0]", fillcolor="#e58139"] ;
187 -> 188 ;
189 [label="gini = 0.0\nsamples = 1\nvalue = [0, 1, 0, 0]\nclass = y[1]", fillcolor="#47e539"] ;
187 -> 189 ;
190 [label="GoodStudent <= 0.5\ngini = 0.444\nsamples = 6\nvalue = [2, 4, 0, 0]\nclass = y[1]", fillcolor="#a3f29c"] ;
186 -> 190 ;
191 [label="AntiTheft <= 2.5\ngini = 0.32\nsamples = 5\nvalue = [1, 4, 0, 0]\nclass = y[1]", fillcolor="#75ec6a"] ;
190 -> 191 ;
192 [label="MedCost <= 1.0\ngini = 0.5\nsamples = 2\nvalue = [1, 1, 0, 0]\nclass = y[0]", fillcolor="#ffffff"] ;
191 -> 192 ;
193 [label="gini = 0.0\nsamples = 1\nvalue = [0, 1, 0, 0]\nclass = y[1]", fillcolor="#47e539"] ;
192 -> 193 ;
194 [label="gini = 0.0\nsamples = 1\nvalue = [1, 0, 0, 0]\nclass = y[0]", fillcolor="#e58139"] ;
192 -> 194 ;
195 [label="gini = 0.0\nsamples = 3\nvalue = [0, 3, 0, 0]\nclass = y[1]", fillcolor="#47e539"] ;
191 -> 195 ;
196 [label="gini = 0.0\nsamples = 1\nvalue = [1, 0, 0, 0]\nclass = y[0]", fillcolor="#e58139"] ;
190 -> 196 ;
197 [label="gini = 0.0\nsamples = 3\nvalue = [3, 0, 0, 0]\nclass = y[0]", fillcolor="#e58139"] ;
185 -> 197 ;
198 [label="gini = 0.0\nsamples = 8\nvalue = [8, 0, 0, 0]\nclass = y[0]", fillcolor="#e58139"] ;
184 -> 198 ;
199 [label="Mileage <= 0.5\ngini = 0.5\nsamples = 78\nvalue = [39, 39, 0, 0]\nclass = y[0]", fillcolor="#ffffff"] ;
183 -> 199 ;
200 [label="Cushioning <= 0.5\ngini = 0.49\nsamples = 58\nvalue = [25, 33, 0, 0]\nclass = y[1]", fillcolor="#d2f9cf"] ;
199 -> 200 ;
201 [label="RiskAversion <= 1.5\ngini = 0.5\nsamples = 47\nvalue = [24, 23, 0, 0]\nclass = y[0]", fillcolor="#fefaf7"] ;
200 -> 201 ;
202 [label="SocioEcon <= 0.5\ngini = 0.472\nsamples = 21\nvalue = [8, 13, 0, 0]\nclass = y[1]", fillcolor="#b8f5b3"] ;
201 -> 202 ;
203 [label="MedCost <= 1.0\ngini = 0.48\nsamples = 10\nvalue = [6, 4, 0, 0]\nclass = y[0]", fillcolor="#f6d5bd"] ;
202 -> 203 ;
204 [label="gini = 0.0\nsamples = 2\nvalue = [0, 2, 0, 0]\nclass = y[1]", fillcolor="#47e539"] ;
203 -> 204 ;
205 [label="CarValue <= 1.5\ngini = 0.375\nsamples = 8\nvalue = [6, 2, 0, 0]\nclass = y[0]", fillcolor="#eeab7b"] ;
203 -> 205 ;
206 [label="gini = 0.0\nsamples = 2\nvalue = [2, 0, 0, 0]\nclass = y[0]", fillcolor="#e58139"] ;
205 -> 206 ;
207 [label="OtherCarCost <= 0.5\ngini = 0.444\nsamples = 6\nvalue = [4, 2, 0, 0]\nclass = y[0]", fillcolor="#f2c09c"] ;
205 -> 207 ;
208 [label="gini = 0.0\nsamples = 2\nvalue = [2, 0, 0, 0]\nclass = y[0]", fillcolor="#e58139"] ;
207 -> 208 ;
209 [label="DrivQuality <= 1.5\ngini = 0.5\nsamples = 4\nvalue = [2, 2, 0, 0]\nclass = y[0]", fillcolor="#ffffff"] ;
207 -> 209 ;
210 [label="ILiCost <= 0.5\ngini = 0.444\nsamples = 3\nvalue = [1, 2, 0, 0]\nclass = y[1]", fillcolor="#a3f29c"] ;
209 -> 210 ;
211 [label="AntiTheft <= 2.5\ngini = 0.5\nsamples = 2\nvalue = [1, 1, 0, 0]\nclass = y[0]", fillcolor="#ffffff"] ;
210 -> 211 ;
212 [label="gini = 0.0\nsamples = 1\nvalue = [0, 1, 0, 0]\nclass = y[1]", fillcolor="#47e539"] ;
211 -> 212 ;
213 [label="gini = 0.0\nsamples = 1\nvalue = [1, 0, 0, 0]\nclass = y[0]", fillcolor="#e58139"] ;
211 -> 213 ;
214 [label="gini = 0.0\nsamples = 1\nvalue = [0, 1, 0, 0]\nclass = y[1]", fillcolor="#47e539"] ;
210 -> 214 ;
215 [label="gini = 0.0\nsamples = 1\nvalue = [1, 0, 0, 0]\nclass = y[0]", fillcolor="#e58139"] ;
209 -> 215 ;
216 [label="Theft <= 2.0\ngini = 0.298\nsamples = 11\nvalue = [2, 9, 0, 0]\nclass = y[1]", fillcolor="#70eb65"] ;
202 -> 216 ;
217 [label="GoodStudent <= 0.5\ngini = 0.18\nsamples = 10\nvalue = [1, 9, 0, 0]\nclass = y[1]", fillcolor="#5be84f"] ;
216 -> 217 ;
218 [label="gini = 0.0\nsamples = 9\nvalue = [0, 9, 0, 0]\nclass = y[1]", fillcolor="#47e539"] ;
217 -> 218 ;
219 [label="gini = 0.0\nsamples = 1\nvalue = [1, 0, 0, 0]\nclass = y[0]", fillcolor="#e58139"] ;
217 -> 219 ;
220 [label="gini = 0.0\nsamples = 1\nvalue = [1, 0, 0, 0]\nclass = y[0]", fillcolor="#e58139"] ;
216 -> 220 ;
221 [label="CarValue <= 2.5\ngini = 0.473\nsamples = 26\nvalue = [16, 10, 0, 0]\nclass = y[0]", fillcolor="#f5d0b5"] ;
201 -> 221 ;
222 [label="RiskAversion <= 2.5\ngini = 0.391\nsamples = 15\nvalue = [11, 4, 0, 0]\nclass = y[0]", fillcolor="#eeaf81"] ;
221 -> 222 ;
223 [label="CarValue <= 1.5\ngini = 0.337\nsamples = 14\nvalue = [11, 3, 0, 0]\nclass = y[0]", fillcolor="#eca36f"] ;
222 -> 223 ;
224 [label="Theft <= 2.0\ngini = 0.444\nsamples = 9\nvalue = [6, 3, 0, 0]\nclass = y[0]", fillcolor="#f2c09c"] ;
223 -> 224 ;
225 [label="MedCost <= 1.0\ngini = 0.278\nsamples = 6\nvalue = [5, 1, 0, 0]\nclass = y[0]", fillcolor="#ea9a61"] ;
224 -> 225 ;
226 [label="Age <= 1.5\ngini = 0.5\nsamples = 2\nvalue = [1, 1, 0, 0]\nclass = y[0]", fillcolor="#ffffff"] ;
225 -> 226 ;
227 [label="gini = 0.0\nsamples = 1\nvalue = [0, 1, 0, 0]\nclass = y[1]", fillcolor="#47e539"] ;
226 -> 227 ;
228 [label="gini = 0.0\nsamples = 1\nvalue = [1, 0, 0, 0]\nclass = y[0]", fillcolor="#e58139"] ;
226 -> 228 ;
229 [label="gini = 0.0\nsamples = 4\nvalue = [4, 0, 0, 0]\nclass = y[0]", fillcolor="#e58139"] ;
225 -> 229 ;
230 [label="OtherCarCost <= 0.5\ngini = 0.444\nsamples = 3\nvalue = [1, 2, 0, 0]\nclass = y[1]", fillcolor="#a3f29c"] ;
224 -> 230 ;
231 [label="gini = 0.0\nsamples = 1\nvalue = [1, 0, 0, 0]\nclass = y[0]", fillcolor="#e58139"] ;
230 -> 231 ;
232 [label="gini = 0.0\nsamples = 2\nvalue = [0, 2, 0, 0]\nclass = y[1]", fillcolor="#47e539"] ;
230 -> 232 ;
233 [label="gini = 0.0\nsamples = 5\nvalue = [5, 0, 0, 0]\nclass = y[0]", fillcolor="#e58139"] ;
223 -> 233 ;
234 [label="gini = 0.0\nsamples = 1\nvalue = [0, 1, 0, 0]\nclass = y[1]", fillcolor="#47e539"] ;
222 -> 234 ;
235 [label="Theft <= 2.0\ngini = 0.496\nsamples = 11\nvalue = [5, 6, 0, 0]\nclass = y[1]", fillcolor="#e0fbde"] ;
221 -> 235 ;
236 [label="AntiTheft <= 2.5\ngini = 0.49\nsamples = 7\nvalue = [4, 3, 0, 0]\nclass = y[0]", fillcolor="#f8e0ce"] ;
235 -> 236 ;
237 [label="DrivQuality <= 2.0\ngini = 0.375\nsamples = 4\nvalue = [3, 1, 0, 0]\nclass = y[0]", fillcolor="#eeab7b"] ;
236 -> 237 ;
238 [label="HomeBase <= 0.5\ngini = 0.444\nsamples = 3\nvalue = [2, 1, 0, 0]\nclass = y[0]", fillcolor="#f2c09c"] ;
237 -> 238 ;
239 [label="ILiCost <= 0.5\ngini = 0.5\nsamples = 2\nvalue = [1, 1, 0, 0]\nclass = y[0]", fillcolor="#ffffff"] ;
238 -> 239 ;
240 [label="gini = 0.0\nsamples = 1\nvalue = [0, 1, 0, 0]\nclass = y[1]", fillcolor="#47e539"] ;
239 -> 240 ;
241 [label="gini = 0.0\nsamples = 1\nvalue = [1, 0, 0, 0]\nclass = y[0]", fillcolor="#e58139"] ;
239 -> 241 ;
242 [label="gini = 0.0\nsamples = 1\nvalue = [1, 0, 0, 0]\nclass = y[0]", fillcolor="#e58139"] ;
238 -> 242 ;
243 [label="gini = 0.0\nsamples = 1\nvalue = [1, 0, 0, 0]\nclass = y[0]", fillcolor="#e58139"] ;
237 -> 243 ;
244 [label="OtherCarCost <= 0.5\ngini = 0.444\nsamples = 3\nvalue = [1, 2, 0, 0]\nclass = y[1]", fillcolor="#a3f29c"] ;
236 -> 244 ;
245 [label="HomeBase <= 0.5\ngini = 0.5\nsamples = 2\nvalue = [1, 1, 0, 0]\nclass = y[0]", fillcolor="#ffffff"] ;
244 -> 245 ;
246 [label="gini = 0.0\nsamples = 1\nvalue = [1, 0, 0, 0]\nclass = y[0]", fillcolor="#e58139"] ;
245 -> 246 ;
247 [label="gini = 0.0\nsamples = 1\nvalue = [0, 1, 0, 0]\nclass = y[1]", fillcolor="#47e539"] ;
245 -> 247 ;
248 [label="gini = 0.0\nsamples = 1\nvalue = [0, 1, 0, 0]\nclass = y[1]", fillcolor="#47e539"] ;
244 -> 248 ;
249 [label="Age <= 0.5\ngini = 0.375\nsamples = 4\nvalue = [1, 3, 0, 0]\nclass = y[1]", fillcolor="#84ee7b"] ;
235 -> 249 ;
250 [label="Theft <= 3.5\ngini = 0.5\nsamples = 2\nvalue = [1, 1, 0, 0]\nclass = y[0]", fillcolor="#ffffff"] ;
249 -> 250 ;
251 [label="gini = 0.0\nsamples = 1\nvalue = [1, 0, 0, 0]\nclass = y[0]", fillcolor="#e58139"] ;
250 -> 251 ;
252 [label="gini = 0.0\nsamples = 1\nvalue = [0, 1, 0, 0]\nclass = y[1]", fillcolor="#47e539"] ;
250 -> 252 ;
253 [label="gini = 0.0\nsamples = 2\nvalue = [0, 2, 0, 0]\nclass = y[1]", fillcolor="#47e539"] ;
249 -> 253 ;
254 [label="OtherCarCost <= 0.5\ngini = 0.165\nsamples = 11\nvalue = [1, 10, 0, 0]\nclass = y[1]", fillcolor="#59e84d"] ;
200 -> 254 ;
255 [label="gini = 0.0\nsamples = 1\nvalue = [1, 0, 0, 0]\nclass = y[0]", fillcolor="#e58139"] ;
254 -> 255 ;
256 [label="gini = 0.0\nsamples = 10\nvalue = [0, 10, 0, 0]\nclass = y[1]", fillcolor="#47e539"] ;
254 -> 256 ;
257 [label="DrivQuality <= 1.5\ngini = 0.42\nsamples = 20\nvalue = [14, 6, 0, 0]\nclass = y[0]", fillcolor="#f0b78e"] ;
199 -> 257 ;
258 [label="ILiCost <= 1.0\ngini = 0.18\nsamples = 10\nvalue = [9, 1, 0, 0]\nclass = y[0]", fillcolor="#e88f4f"] ;
257 -> 258 ;
259 [label="gini = 0.0\nsamples = 9\nvalue = [9, 0, 0, 0]\nclass = y[0]", fillcolor="#e58139"] ;
258 -> 259 ;
260 [label="gini = 0.0\nsamples = 1\nvalue = [0, 1, 0, 0]\nclass = y[1]", fillcolor="#47e539"] ;
258 -> 260 ;
261 [label="Age <= 1.5\ngini = 0.5\nsamples = 10\nvalue = [5, 5, 0, 0]\nclass = y[0]", fillcolor="#ffffff"] ;
257 -> 261 ;
262 [label="DrivQuality <= 2.5\ngini = 0.469\nsamples = 8\nvalue = [5, 3, 0, 0]\nclass = y[0]", fillcolor="#f5cdb0"] ;
261 -> 262 ;
263 [label="gini = 0.0\nsamples = 1\nvalue = [0, 1, 0, 0]\nclass = y[1]", fillcolor="#47e539"] ;
262 -> 263 ;
264 [label="RiskAversion <= 1.0\ngini = 0.408\nsamples = 7\nvalue = [5, 2, 0, 0]\nclass = y[0]", fillcolor="#efb388"] ;
262 -> 264 ;
265 [label="CarValue <= 1.5\ngini = 0.48\nsamples = 5\nvalue = [3, 2, 0, 0]\nclass = y[0]", fillcolor="#f6d5bd"] ;
264 -> 265 ;
266 [label="gini = 0.0\nsamples = 1\nvalue = [1, 0, 0, 0]\nclass = y[0]", fillcolor="#e58139"] ;
265 -> 266 ;
267 [label="AntiTheft <= 2.5\ngini = 0.5\nsamples = 4\nvalue = [2, 2, 0, 0]\nclass = y[0]", fillcolor="#ffffff"] ;
265 -> 267 ;
268 [label="gini = 0.0\nsamples = 1\nvalue = [0, 1, 0, 0]\nclass = y[1]", fillcolor="#47e539"] ;
267 -> 268 ;
269 [label="CarValue <= 2.5\ngini = 0.444\nsamples = 3\nvalue = [2, 1, 0, 0]\nclass = y[0]", fillcolor="#f2c09c"] ;
267 -> 269 ;
270 [label="gini = 0.5\nsamples = 2\nvalue = [1, 1, 0, 0]\nclass = y[0]", fillcolor="#ffffff"] ;
269 -> 270 ;
271 [label="gini = 0.0\nsamples = 1\nvalue = [1, 0, 0, 0]\nclass = y[0]", fillcolor="#e58139"] ;
269 -> 271 ;
272 [label="gini = 0.0\nsamples = 2\nvalue = [2, 0, 0, 0]\nclass = y[0]", fillcolor="#e58139"] ;
264 -> 272 ;
273 [label="gini = 0.0\nsamples = 2\nvalue = [0, 2, 0, 0]\nclass = y[1]", fillcolor="#47e539"] ;
261 -> 273 ;
274 [label="RuggedAuto <= 1.5\ngini = 0.273\nsamples = 890\nvalue = [85, 752, 53, 0]\nclass = y[1]", fillcolor="#67e95b"] ;
2 -> 274 ;
275 [label="PropCost <= 1.5\ngini = 0.203\nsamples = 793\nvalue = [84, 703, 6, 0]\nclass = y[1]", fillcolor="#5ee852"] ;
274 -> 275 ;
276 [label="RuggedAuto <= 0.5\ngini = 0.041\nsamples = 337\nvalue = [1, 330, 6, 0]\nclass = y[1]", fillcolor="#4be63d"] ;
275 -> 276 ;
277 [label="gini = 0.0\nsamples = 165\nvalue = [0, 165, 0, 0]\nclass = y[1]", fillcolor="#47e539"] ;
276 -> 277 ;
278 [label="OtherCar <= 0.5\ngini = 0.078\nsamples = 172\nvalue = [1, 165, 6, 0]\nclass = y[1]", fillcolor="#4fe641"] ;
276 -> 278 ;
279 [label="SeniorTrain <= 2.5\ngini = 0.375\nsamples = 8\nvalue = [0, 6, 2, 0]\nclass = y[1]", fillcolor="#84ee7b"] ;
278 -> 279 ;
280 [label="ILiCost <= 1.0\ngini = 0.245\nsamples = 7\nvalue = [0, 6, 1, 0]\nclass = y[1]", fillcolor="#66e95a"] ;
279 -> 280 ;
281 [label="gini = 0.0\nsamples = 4\nvalue = [0, 4, 0, 0]\nclass = y[1]", fillcolor="#47e539"] ;
280 -> 281 ;
282 [label="PropCost <= 0.5\ngini = 0.444\nsamples = 3\nvalue = [0, 2, 1, 0]\nclass = y[1]", fillcolor="#a3f29c"] ;
280 -> 282 ;
283 [label="gini = 0.0\nsamples = 2\nvalue = [0, 2, 0, 0]\nclass = y[1]", fillcolor="#47e539"] ;
282 -> 283 ;
284 [label="gini = 0.0\nsamples = 1\nvalue = [0, 0, 1, 0]\nclass = y[2]", fillcolor="#399de5"] ;
282 -> 284 ;
285 [label="gini = 0.0\nsamples = 1\nvalue = [0, 0, 1, 0]\nclass = y[2]", fillcolor="#399de5"] ;
279 -> 285 ;
286 [label="VehicleYear <= 0.5\ngini = 0.059\nsamples = 164\nvalue = [1, 159, 4, 0]\nclass = y[1]", fillcolor="#4de63f"] ;
278 -> 286 ;
287 [label="OtherCar <= 2.5\ngini = 0.101\nsamples = 75\nvalue = [0, 71, 4, 0]\nclass = y[1]", fillcolor="#51e644"] ;
286 -> 287 ;
288 [label="ILiCost <= 1.0\ngini = 0.5\nsamples = 2\nvalue = [0, 1, 1, 0]\nclass = y[1]", fillcolor="#ffffff"] ;
287 -> 288 ;
289 [label="gini = 0.0\nsamples = 1\nvalue = [0, 0, 1, 0]\nclass = y[2]", fillcolor="#399de5"] ;
288 -> 289 ;
290 [label="gini = 0.0\nsamples = 1\nvalue = [0, 1, 0, 0]\nclass = y[1]", fillcolor="#47e539"] ;
288 -> 290 ;
291 [label="ILiCost <= 1.5\ngini = 0.079\nsamples = 73\nvalue = [0, 70, 3, 0]\nclass = y[1]", fillcolor="#4fe641"] ;
287 -> 291 ;
292 [label="OtherCarCost <= 0.5\ngini = 0.032\nsamples = 62\nvalue = [0, 61, 1, 0]\nclass = y[1]", fillcolor="#4ae53c"] ;
291 -> 292 ;
293 [label="CarValue <= 1.5\ngini = 0.219\nsamples = 8\nvalue = [0, 7, 1, 0]\nclass = y[1]", fillcolor="#61e955"] ;
292 -> 293 ;
294 [label="gini = 0.0\nsamples = 6\nvalue = [0, 6, 0, 0]\nclass = y[1]", fillcolor="#47e539"] ;
293 -> 294 ;
295 [label="RiskAversion <= 1.5\ngini = 0.5\nsamples = 2\nvalue = [0, 1, 1, 0]\nclass = y[1]", fillcolor="#ffffff"] ;
293 -> 295 ;
296 [label="gini = 0.0\nsamples = 1\nvalue = [0, 1, 0, 0]\nclass = y[1]", fillcolor="#47e539"] ;
295 -> 296 ;
297 [label="gini = 0.0\nsamples = 1\nvalue = [0, 0, 1, 0]\nclass = y[2]", fillcolor="#399de5"] ;
295 -> 297 ;
298 [label="gini = 0.0\nsamples = 54\nvalue = [0, 54, 0, 0]\nclass = y[1]", fillcolor="#47e539"] ;
292 -> 298 ;
299 [label="Mileage <= 0.5\ngini = 0.298\nsamples = 11\nvalue = [0, 9, 2, 0]\nclass = y[1]", fillcolor="#70eb65"] ;
291 -> 299 ;
300 [label="CarValue <= 1.5\ngini = 0.444\nsamples = 6\nvalue = [0, 4, 2, 0]\nclass = y[1]", fillcolor="#a3f29c"] ;
299 -> 300 ;
301 [label="gini = 0.0\nsamples = 3\nvalue = [0, 3, 0, 0]\nclass = y[1]", fillcolor="#47e539"] ;
300 -> 301 ;
302 [label="RiskAversion <= 0.5\ngini = 0.444\nsamples = 3\nvalue = [0, 1, 2, 0]\nclass = y[2]", fillcolor="#9ccef2"] ;
300 -> 302 ;
303 [label="gini = 0.0\nsamples = 1\nvalue = [0, 1, 0, 0]\nclass = y[1]", fillcolor="#47e539"] ;
302 -> 303 ;
304 [label="gini = 0.0\nsamples = 2\nvalue = [0, 0, 2, 0]\nclass = y[2]", fillcolor="#399de5"] ;
302 -> 304 ;
305 [label="gini = 0.0\nsamples = 5\nvalue = [0, 5, 0, 0]\nclass = y[1]", fillcolor="#47e539"] ;
299 -> 305 ;
306 [label="CarValue <= 1.5\ngini = 0.022\nsamples = 89\nvalue = [1, 88, 0, 0]\nclass = y[1]", fillcolor="#49e53b"] ;
286 -> 306 ;
307 [label="CarValue <= 0.5\ngini = 0.045\nsamples = 43\nvalue = [1, 42, 0, 0]\nclass = y[1]", fillcolor="#4be63e"] ;
306 -> 307 ;
308 [label="gini = 0.0\nsamples = 35\nvalue = [0, 35, 0, 0]\nclass = y[1]", fillcolor="#47e539"] ;
307 -> 308 ;
309 [label="SocioEcon <= 0.5\ngini = 0.219\nsamples = 8\nvalue = [1, 7, 0, 0]\nclass = y[1]", fillcolor="#61e955"] ;
307 -> 309 ;
310 [label="DrivQuality <= 2.0\ngini = 0.444\nsamples = 3\nvalue = [1, 2, 0, 0]\nclass = y[1]", fillcolor="#a3f29c"] ;
309 -> 310 ;
311 [label="gini = 0.0\nsamples = 1\nvalue = [1, 0, 0, 0]\nclass = y[0]", fillcolor="#e58139"] ;
310 -> 311 ;
312 [label="gini = 0.0\nsamples = 2\nvalue = [0, 2, 0, 0]\nclass = y[1]", fillcolor="#47e539"] ;
310 -> 312 ;
313 [label="gini = 0.0\nsamples = 5\nvalue = [0, 5, 0, 0]\nclass = y[1]", fillcolor="#47e539"] ;
309 -> 313 ;
314 [label="gini = 0.0\nsamples = 46\nvalue = [0, 46, 0, 0]\nclass = y[1]", fillcolor="#47e539"] ;
306 -> 314 ;
315 [label="OtherCar <= 2.5\ngini = 0.298\nsamples = 456\nvalue = [83, 373, 0, 0]\nclass = y[1]", fillcolor="#70eb65"] ;
275 -> 315 ;
316 [label="Theft <= 0.5\ngini = 0.018\nsamples = 110\nvalue = [1, 109, 0, 0]\nclass = y[1]", fillcolor="#49e53b"] ;
315 -> 316 ;
317 [label="CarValue <= 1.0\ngini = 0.444\nsamples = 3\nvalue = [1, 2, 0, 0]\nclass = y[1]", fillcolor="#a3f29c"] ;
316 -> 317 ;
318 [label="gini = 0.0\nsamples = 1\nvalue = [0, 1, 0, 0]\nclass = y[1]", fillcolor="#47e539"] ;
317 -> 318 ;
319 [label="OtherCar <= 1.0\ngini = 0.5\nsamples = 2\nvalue = [1, 1, 0, 0]\nclass = y[0]", fillcolor="#ffffff"] ;
317 -> 319 ;
320 [label="gini = 0.0\nsamples = 1\nvalue = [0, 1, 0, 0]\nclass = y[1]", fillcolor="#47e539"] ;
319 -> 320 ;
321 [label="gini = 0.0\nsamples = 1\nvalue = [1, 0, 0, 0]\nclass = y[0]", fillcolor="#e58139"] ;
319 -> 321 ;
322 [label="gini = 0.0\nsamples = 107\nvalue = [0, 107, 0, 0]\nclass = y[1]", fillcolor="#47e539"] ;
316 -> 322 ;
323 [label="RuggedAuto <= 0.5\ngini = 0.362\nsamples = 346\nvalue = [82, 264, 0, 0]\nclass = y[1]", fillcolor="#80ed77"] ;
315 -> 323 ;
324 [label="Airbag <= 2.5\ngini = 0.437\nsamples = 180\nvalue = [58, 122, 0, 0]\nclass = y[1]", fillcolor="#9ef197"] ;
323 -> 324 ;
325 [label="gini = 0.0\nsamples = 17\nvalue = [0, 17, 0, 0]\nclass = y[1]", fillcolor="#47e539"] ;
324 -> 325 ;
326 [label="Theft <= 2.0\ngini = 0.458\nsamples = 163\nvalue = [58, 105, 0, 0]\nclass = y[1]", fillcolor="#adf3a6"] ;
324 -> 326 ;
327 [label="VehicleYear <= 0.5\ngini = 0.413\nsamples = 96\nvalue = [28, 68, 0, 0]\nclass = y[1]", fillcolor="#93f08b"] ;
326 -> 327 ;
328 [label="CarValue <= 2.5\ngini = 0.486\nsamples = 12\nvalue = [7, 5, 0, 0]\nclass = y[0]", fillcolor="#f8dbc6"] ;
327 -> 328 ;
329 [label="DrivQuality <= 0.5\ngini = 0.42\nsamples = 10\nvalue = [7, 3, 0, 0]\nclass = y[0]", fillcolor="#f0b78e"] ;
328 -> 329 ;
330 [label="gini = 0.0\nsamples = 2\nvalue = [0, 2, 0, 0]\nclass = y[1]", fillcolor="#47e539"] ;
329 -> 330 ;
331 [label="SocioEcon <= 2.5\ngini = 0.219\nsamples = 8\nvalue = [7, 1, 0, 0]\nclass = y[0]", fillcolor="#e99355"] ;
329 -> 331 ;
332 [label="gini = 0.0\nsamples = 7\nvalue = [7, 0, 0, 0]\nclass = y[0]", fillcolor="#e58139"] ;
331 -> 332 ;
333 [label="gini = 0.0\nsamples = 1\nvalue = [0, 1, 0, 0]\nclass = y[1]", fillcolor="#47e539"] ;
331 -> 333 ;
334 [label="gini = 0.0\nsamples = 2\nvalue = [0, 2, 0, 0]\nclass = y[1]", fillcolor="#47e539"] ;
328 -> 334 ;
335 [label="OtherCarCost <= 0.5\ngini = 0.375\nsamples = 84\nvalue = [21, 63, 0, 0]\nclass = y[1]", fillcolor="#84ee7b"] ;
327 -> 335 ;
336 [label="ILiCost <= 1.5\ngini = 0.278\nsamples = 36\nvalue = [6, 30, 0, 0]\nclass = y[1]", fillcolor="#6cea61"] ;
335 -> 336 ;
337 [label="CarValue <= 2.5\ngini = 0.219\nsamples = 32\nvalue = [4, 28, 0, 0]\nclass = y[1]", fillcolor="#61e955"] ;
336 -> 337 ;
338 [label="RiskAversion <= 0.5\ngini = 0.18\nsamples = 30\nvalue = [3, 27, 0, 0]\nclass = y[1]", fillcolor="#5be84f"] ;
337 -> 338 ;
339 [label="Cushioning <= 0.5\ngini = 0.32\nsamples = 10\nvalue = [2, 8, 0, 0]\nclass = y[1]", fillcolor="#75ec6a"] ;
338 -> 339 ;
340 [label="DrivQuality <= 2.0\ngini = 0.219\nsamples = 8\nvalue = [1, 7, 0, 0]\nclass = y[1]", fillcolor="#61e955"] ;
339 -> 340 ;
341 [label="gini = 0.0\nsamples = 3\nvalue = [0, 3, 0, 0]\nclass = y[1]", fillcolor="#47e539"] ;
340 -> 341 ;
342 [label="Age <= 0.5\ngini = 0.32\nsamples = 5\nvalue = [1, 4, 0, 0]\nclass = y[1]", fillcolor="#75ec6a"] ;
340 -> 342 ;
343 [label="MedCost <= 2.0\ngini = 0.444\nsamples = 3\nvalue = [1, 2, 0, 0]\nclass = y[1]", fillcolor="#a3f29c"] ;
342 -> 343 ;
344 [label="gini = 0.0\nsamples = 1\nvalue = [0, 1, 0, 0]\nclass = y[1]", fillcolor="#47e539"] ;
343 -> 344 ;
345 [label="gini = 0.5\nsamples = 2\nvalue = [1, 1, 0, 0]\nclass = y[0]", fillcolor="#ffffff"] ;
343 -> 345 ;
346 [label="gini = 0.0\nsamples = 2\nvalue = [0, 2, 0, 0]\nclass = y[1]", fillcolor="#47e539"] ;
342 -> 346 ;
347 [label="MedCost <= 2.5\ngini = 0.5\nsamples = 2\nvalue = [1, 1, 0, 0]\nclass = y[0]", fillcolor="#ffffff"] ;
339 -> 347 ;
348 [label="gini = 0.0\nsamples = 1\nvalue = [1, 0, 0, 0]\nclass = y[0]", fillcolor="#e58139"] ;
347 -> 348 ;
349 [label="gini = 0.0\nsamples = 1\nvalue = [0, 1, 0, 0]\nclass = y[1]", fillcolor="#47e539"] ;
347 -> 349 ;
350 [label="MedCost <= 2.0\ngini = 0.095\nsamples = 20\nvalue = [1, 19, 0, 0]\nclass = y[1]", fillcolor="#51e643"] ;
338 -> 350 ;
351 [label="DrivQuality <= 0.5\ngini = 0.198\nsamples = 9\nvalue = [1, 8, 0, 0]\nclass = y[1]", fillcolor="#5ee852"] ;
350 -> 351 ;
352 [label="gini = 0.0\nsamples = 3\nvalue = [0, 3, 0, 0]\nclass = y[1]", fillcolor="#47e539"] ;
351 -> 352 ;
353 [label="DrivQuality <= 2.0\ngini = 0.278\nsamples = 6\nvalue = [1, 5, 0, 0]\nclass = y[1]", fillcolor="#6cea61"] ;
351 -> 353 ;
354 [label="ILiCost <= 0.5\ngini = 0.444\nsamples = 3\nvalue = [1, 2, 0, 0]\nclass = y[1]", fillcolor="#a3f29c"] ;
353 -> 354 ;
355 [label="gini = 0.0\nsamples = 1\nvalue = [1, 0, 0, 0]\nclass = y[0]", fillcolor="#e58139"] ;
354 -> 355 ;
356 [label="gini = 0.0\nsamples = 2\nvalue = [0, 2, 0, 0]\nclass = y[1]", fillcolor="#47e539"] ;
354 -> 356 ;
357 [label="gini = 0.0\nsamples = 3\nvalue = [0, 3, 0, 0]\nclass = y[1]", fillcolor="#47e539"] ;
353 -> 357 ;
358 [label="gini = 0.0\nsamples = 11\nvalue = [0, 11, 0, 0]\nclass = y[1]", fillcolor="#47e539"] ;
350 -> 358 ;
359 [label="AntiTheft <= 2.5\ngini = 0.5\nsamples = 2\nvalue = [1, 1, 0, 0]\nclass = y[0]", fillcolor="#ffffff"] ;
337 -> 359 ;
360 [label="gini = 0.0\nsamples = 1\nvalue = [0, 1, 0, 0]\nclass = y[1]", fillcolor="#47e539"] ;
359 -> 360 ;
361 [label="gini = 0.0\nsamples = 1\nvalue = [1, 0, 0, 0]\nclass = y[0]", fillcolor="#e58139"] ;
359 -> 361 ;
362 [label="DrivQuality <= 2.0\ngini = 0.5\nsamples = 4\nvalue = [2, 2, 0, 0]\nclass = y[0]", fillcolor="#ffffff"] ;
336 -> 362 ;
363 [label="gini = 0.0\nsamples = 2\nvalue = [2, 0, 0, 0]\nclass = y[0]", fillcolor="#e58139"] ;
362 -> 363 ;
364 [label="gini = 0.0\nsamples = 2\nvalue = [0, 2, 0, 0]\nclass = y[1]", fillcolor="#47e539"] ;
362 -> 364 ;
365 [label="Age <= 0.5\ngini = 0.43\nsamples = 48\nvalue = [15, 33, 0, 0]\nclass = y[1]", fillcolor="#9bf193"] ;
335 -> 365 ;
366 [label="DrivQuality <= 2.0\ngini = 0.497\nsamples = 13\nvalue = [7, 6, 0, 0]\nclass = y[0]", fillcolor="#fbede3"] ;
365 -> 366 ;
367 [label="SocioEcon <= 0.5\ngini = 0.463\nsamples = 11\nvalue = [7, 4, 0, 0]\nclass = y[0]", fillcolor="#f4c9aa"] ;
366 -> 367 ;
368 [label="gini = 0.0\nsamples = 4\nvalue = [4, 0, 0, 0]\nclass = y[0]", fillcolor="#e58139"] ;
367 -> 368 ;
369 [label="MedCost <= 2.0\ngini = 0.49\nsamples = 7\nvalue = [3, 4, 0, 0]\nclass = y[1]", fillcolor="#d1f8ce"] ;
367 -> 369 ;
370 [label="gini = 0.0\nsamples = 2\nvalue = [0, 2, 0, 0]\nclass = y[1]", fillcolor="#47e539"] ;
369 -> 370 ;
371 [label="Antilock <= 1.5\ngini = 0.48\nsamples = 5\nvalue = [3, 2, 0, 0]\nclass = y[0]", fillcolor="#f6d5bd"] ;
369 -> 371 ;
372 [label="gini = 0.0\nsamples = 1\nvalue = [0, 1, 0, 0]\nclass = y[1]", fillcolor="#47e539"] ;
371 -> 372 ;
373 [label="CarValue <= 0.5\ngini = 0.375\nsamples = 4\nvalue = [3, 1, 0, 0]\nclass = y[0]", fillcolor="#eeab7b"] ;
371 -> 373 ;
374 [label="gini = 0.0\nsamples = 1\nvalue = [1, 0, 0, 0]\nclass = y[0]", fillcolor="#e58139"] ;
373 -> 374 ;
375 [label="DrivQuality <= 0.5\ngini = 0.444\nsamples = 3\nvalue = [2, 1, 0, 0]\nclass = y[0]", fillcolor="#f2c09c"] ;
373 -> 375 ;
376 [label="gini = 0.0\nsamples = 1\nvalue = [1, 0, 0, 0]\nclass = y[0]", fillcolor="#e58139"] ;
375 -> 376 ;
377 [label="AntiTheft <= 1.0\ngini = 0.5\nsamples = 2\nvalue = [1, 1, 0, 0]\nclass = y[0]", fillcolor="#ffffff"] ;
375 -> 377 ;
378 [label="gini = 0.0\nsamples = 1\nvalue = [1, 0, 0, 0]\nclass = y[0]", fillcolor="#e58139"] ;
377 -> 378 ;
379 [label="gini = 0.0\nsamples = 1\nvalue = [0, 1, 0, 0]\nclass = y[1]", fillcolor="#47e539"] ;
377 -> 379 ;
380 [label="gini = 0.0\nsamples = 2\nvalue = [0, 2, 0, 0]\nclass = y[1]", fillcolor="#47e539"] ;
366 -> 380 ;
381 [label="ILiCost <= 0.5\ngini = 0.353\nsamples = 35\nvalue = [8, 27, 0, 0]\nclass = y[1]", fillcolor="#7eed74"] ;
365 -> 381 ;
382 [label="HomeBase <= 0.5\ngini = 0.426\nsamples = 26\nvalue = [8, 18, 0, 0]\nclass = y[1]", fillcolor="#99f191"] ;
381 -> 382 ;
383 [label="DrivQuality <= 2.5\ngini = 0.375\nsamples = 20\nvalue = [5, 15, 0, 0]\nclass = y[1]", fillcolor="#84ee7b"] ;
382 -> 383 ;
384 [label="MedCost <= 1.5\ngini = 0.231\nsamples = 15\nvalue = [2, 13, 0, 0]\nclass = y[1]", fillcolor="#63e957"] ;
383 -> 384 ;
385 [label="RiskAversion <= 1.0\ngini = 0.408\nsamples = 7\nvalue = [2, 5, 0, 0]\nclass = y[1]", fillcolor="#91ef88"] ;
384 -> 385 ;
386 [label="Accident <= 0.5\ngini = 0.5\nsamples = 4\nvalue = [2, 2, 0, 0]\nclass = y[0]", fillcolor="#ffffff"] ;
385 -> 386 ;
387 [label="DrivQuality <= 0.5\ngini = 0.444\nsamples = 3\nvalue = [2, 1, 0, 0]\nclass = y[0]", fillcolor="#f2c09c"] ;
386 -> 387 ;
388 [label="gini = 0.0\nsamples = 1\nvalue = [0, 1, 0, 0]\nclass = y[1]", fillcolor="#47e539"] ;
387 -> 388 ;
389 [label="gini = 0.0\nsamples = 2\nvalue = [2, 0, 0, 0]\nclass = y[0]", fillcolor="#e58139"] ;
387 -> 389 ;
390 [label="gini = 0.0\nsamples = 1\nvalue = [0, 1, 0, 0]\nclass = y[1]", fillcolor="#47e539"] ;
386 -> 390 ;
391 [label="gini = 0.0\nsamples = 3\nvalue = [0, 3, 0, 0]\nclass = y[1]", fillcolor="#47e539"] ;
385 -> 391 ;
392 [label="gini = 0.0\nsamples = 8\nvalue = [0, 8, 0, 0]\nclass = y[1]", fillcolor="#47e539"] ;
384 -> 392 ;
393 [label="Age <= 1.5\ngini = 0.48\nsamples = 5\nvalue = [3, 2, 0, 0]\nclass = y[0]", fillcolor="#f6d5bd"] ;
383 -> 393 ;
394 [label="SeniorTrain <= 2.5\ngini = 0.5\nsamples = 4\nvalue = [2, 2, 0, 0]\nclass = y[0]", fillcolor="#ffffff"] ;
393 -> 394 ;
395 [label="CarValue <= 2.0\ngini = 0.444\nsamples = 3\nvalue = [2, 1, 0, 0]\nclass = y[0]", fillcolor="#f2c09c"] ;
394 -> 395 ;
396 [label="gini = 0.0\nsamples = 2\nvalue = [2, 0, 0, 0]\nclass = y[0]", fillcolor="#e58139"] ;
395 -> 396 ;
397 [label="gini = 0.0\nsamples = 1\nvalue = [0, 1, 0, 0]\nclass = y[1]", fillcolor="#47e539"] ;
395 -> 397 ;
398 [label="gini = 0.0\nsamples = 1\nvalue = [0, 1, 0, 0]\nclass = y[1]", fillcolor="#47e539"] ;
394 -> 398 ;
399 [label="gini = 0.0\nsamples = 1\nvalue = [1, 0, 0, 0]\nclass = y[0]", fillcolor="#e58139"] ;
393 -> 399 ;
400 [label="DrivQuality <= 2.0\ngini = 0.5\nsamples = 6\nvalue = [3, 3, 0, 0]\nclass = y[0]", fillcolor="#ffffff"] ;
382 -> 400 ;
401 [label="SocioEcon <= 0.5\ngini = 0.48\nsamples = 5\nvalue = [3, 2, 0, 0]\nclass = y[0]", fillcolor="#f6d5bd"] ;
400 -> 401 ;
402 [label="gini = 0.0\nsamples = 1\nvalue = [0, 1, 0, 0]\nclass = y[1]", fillcolor="#47e539"] ;
401 -> 402 ;
403 [label="SeniorTrain <= 2.5\ngini = 0.375\nsamples = 4\nvalue = [3, 1, 0, 0]\nclass = y[0]", fillcolor="#eeab7b"] ;
401 -> 403 ;
404 [label="gini = 0.0\nsamples = 2\nvalue = [2, 0, 0, 0]\nclass = y[0]", fillcolor="#e58139"] ;
403 -> 404 ;
405 [label="DrivQuality <= 0.5\ngini = 0.5\nsamples = 2\nvalue = [1, 1, 0, 0]\nclass = y[0]", fillcolor="#ffffff"] ;
403 -> 405 ;
406 [label="gini = 0.0\nsamples = 1\nvalue = [1, 0, 0, 0]\nclass = y[0]", fillcolor="#e58139"] ;
405 -> 406 ;
407 [label="gini = 0.0\nsamples = 1\nvalue = [0, 1, 0, 0]\nclass = y[1]", fillcolor="#47e539"] ;
405 -> 407 ;
408 [label="gini = 0.0\nsamples = 1\nvalue = [0, 1, 0, 0]\nclass = y[1]", fillcolor="#47e539"] ;
400 -> 408 ;
409 [label="gini = 0.0\nsamples = 9\nvalue = [0, 9, 0, 0]\nclass = y[1]", fillcolor="#47e539"] ;
381 -> 409 ;
410 [label="DrivQuality <= 1.5\ngini = 0.495\nsamples = 67\nvalue = [30, 37, 0, 0]\nclass = y[1]", fillcolor="#dcfada"] ;
326 -> 410 ;
411 [label="GoodStudent <= 0.5\ngini = 0.366\nsamples = 29\nvalue = [7, 22, 0, 0]\nclass = y[1]", fillcolor="#82ed78"] ;
410 -> 411 ;
412 [label="DrivingSkill <= 0.5\ngini = 0.302\nsamples = 27\nvalue = [5, 22, 0, 0]\nclass = y[1]", fillcolor="#71eb66"] ;
411 -> 412 ;
413 [label="CarValue <= 0.5\ngini = 0.26\nsamples = 26\nvalue = [4, 22, 0, 0]\nclass = y[1]", fillcolor="#68ea5d"] ;
412 -> 413 ;
414 [label="MedCost <= 2.5\ngini = 0.48\nsamples = 5\nvalue = [2, 3, 0, 0]\nclass = y[1]", fillcolor="#c2f6bd"] ;
413 -> 414 ;
415 [label="OtherCarCost <= 0.5\ngini = 0.444\nsamples = 3\nvalue = [2, 1, 0, 0]\nclass = y[0]", fillcolor="#f2c09c"] ;
414 -> 415 ;
416 [label="gini = 0.0\nsamples = 1\nvalue = [0, 1, 0, 0]\nclass = y[1]", fillcolor="#47e539"] ;
415 -> 416 ;
417 [label="gini = 0.0\nsamples = 2\nvalue = [2, 0, 0, 0]\nclass = y[0]", fillcolor="#e58139"] ;
415 -> 417 ;
418 [label="gini = 0.0\nsamples = 2\nvalue = [0, 2, 0, 0]\nclass = y[1]", fillcolor="#47e539"] ;
414 -> 418 ;
419 [label="HomeBase <= 0.5\ngini = 0.172\nsamples = 21\nvalue = [2, 19, 0, 0]\nclass = y[1]", fillcolor="#5ae84e"] ;
413 -> 419 ;
420 [label="gini = 0.0\nsamples = 12\nvalue = [0, 12, 0, 0]\nclass = y[1]", fillcolor="#47e539"] ;
419 -> 420 ;
421 [label="DrivQuality <= 0.5\ngini = 0.346\nsamples = 9\nvalue = [2, 7, 0, 0]\nclass = y[1]", fillcolor="#7cec72"] ;
419 -> 421 ;
422 [label="gini = 0.0\nsamples = 1\nvalue = [1, 0, 0, 0]\nclass = y[0]", fillcolor="#e58139"] ;
421 -> 422 ;
423 [label="CarValue <= 2.5\ngini = 0.219\nsamples = 8\nvalue = [1, 7, 0, 0]\nclass = y[1]", fillcolor="#61e955"] ;
421 -> 423 ;
424 [label="SocioEcon <= 1.0\ngini = 0.444\nsamples = 3\nvalue = [1, 2, 0, 0]\nclass = y[1]", fillcolor="#a3f29c"] ;
423 -> 424 ;
425 [label="gini = 0.0\nsamples = 1\nvalue = [0, 1, 0, 0]\nclass = y[1]", fillcolor="#47e539"] ;
424 -> 425 ;
426 [label="gini = 0.5\nsamples = 2\nvalue = [1, 1, 0, 0]\nclass = y[0]", fillcolor="#ffffff"] ;
424 -> 426 ;
427 [label="gini = 0.0\nsamples = 5\nvalue = [0, 5, 0, 0]\nclass = y[1]", fillcolor="#47e539"] ;
423 -> 427 ;
428 [label="gini = 0.0\nsamples = 1\nvalue = [1, 0, 0, 0]\nclass = y[0]", fillcolor="#e58139"] ;
412 -> 428 ;
429 [label="gini = 0.0\nsamples = 2\nvalue = [2, 0, 0, 0]\nclass = y[0]", fillcolor="#e58139"] ;
411 -> 429 ;
430 [label="MedCost <= 1.5\ngini = 0.478\nsamples = 38\nvalue = [23, 15, 0, 0]\nclass = y[0]", fillcolor="#f6d3ba"] ;
410 -> 430 ;
431 [label="Antilock <= 1.5\ngini = 0.444\nsamples = 12\nvalue = [4, 8, 0, 0]\nclass = y[1]", fillcolor="#a3f29c"] ;
430 -> 431 ;
432 [label="gini = 0.0\nsamples = 2\nvalue = [2, 0, 0, 0]\nclass = y[0]", fillcolor="#e58139"] ;
431 -> 432 ;
433 [label="ILiCost <= 0.5\ngini = 0.32\nsamples = 10\nvalue = [2, 8, 0, 0]\nclass = y[1]", fillcolor="#75ec6a"] ;
431 -> 433 ;
434 [label="SocioEcon <= 1.5\ngini = 0.198\nsamples = 9\nvalue = [1, 8, 0, 0]\nclass = y[1]", fillcolor="#5ee852"] ;
433 -> 434 ;
435 [label="gini = 0.0\nsamples = 8\nvalue = [0, 8, 0, 0]\nclass = y[1]", fillcolor="#47e539"] ;
434 -> 435 ;
436 [label="gini = 0.0\nsamples = 1\nvalue = [1, 0, 0, 0]\nclass = y[0]", fillcolor="#e58139"] ;
434 -> 436 ;
437 [label="gini = 0.0\nsamples = 1\nvalue = [1, 0, 0, 0]\nclass = y[0]", fillcolor="#e58139"] ;
433 -> 437 ;
438 [label="CarValue <= 0.5\ngini = 0.393\nsamples = 26\nvalue = [19, 7, 0, 0]\nclass = y[0]", fillcolor="#efaf82"] ;
430 -> 438 ;
439 [label="AntiTheft <= 1.0\ngini = 0.486\nsamples = 12\nvalue = [7, 5, 0, 0]\nclass = y[0]", fillcolor="#f8dbc6"] ;
438 -> 439 ;
440 [label="gini = 0.0\nsamples = 3\nvalue = [0, 3, 0, 0]\nclass = y[1]", fillcolor="#47e539"] ;
439 -> 440 ;
441 [label="SocioEcon <= 0.5\ngini = 0.346\nsamples = 9\nvalue = [7, 2, 0, 0]\nclass = y[0]", fillcolor="#eca572"] ;
439 -> 441 ;
442 [label="gini = 0.0\nsamples = 1\nvalue = [0, 1, 0, 0]\nclass = y[1]", fillcolor="#47e539"] ;
441 -> 442 ;
443 [label="Mileage <= 0.5\ngini = 0.219\nsamples = 8\nvalue = [7, 1, 0, 0]\nclass = y[0]", fillcolor="#e99355"] ;
441 -> 443 ;
444 [label="gini = 0.0\nsamples = 7\nvalue = [7, 0, 0, 0]\nclass = y[0]", fillcolor="#e58139"] ;
443 -> 444 ;
445 [label="gini = 0.0\nsamples = 1\nvalue = [0, 1, 0, 0]\nclass = y[1]", fillcolor="#47e539"] ;
443 -> 445 ;
446 [label="SocioEcon <= 1.5\ngini = 0.245\nsamples = 14\nvalue = [12, 2, 0, 0]\nclass = y[0]", fillcolor="#e9965a"] ;
438 -> 446 ;
447 [label="gini = 0.0\nsamples = 8\nvalue = [8, 0, 0, 0]\nclass = y[0]", fillcolor="#e58139"] ;
446 -> 447 ;
448 [label="MedCost <= 2.5\ngini = 0.444\nsamples = 6\nvalue = [4, 2, 0, 0]\nclass = y[0]", fillcolor="#f2c09c"] ;
446 -> 448 ;
449 [label="gini = 0.0\nsamples = 1\nvalue = [0, 1, 0, 0]\nclass = y[1]", fillcolor="#47e539"] ;
448 -> 449 ;
450 [label="Cushioning <= 0.5\ngini = 0.32\nsamples = 5\nvalue = [4, 1, 0, 0]\nclass = y[0]", fillcolor="#eca06a"] ;
448 -> 450 ;
451 [label="gini = 0.0\nsamples = 1\nvalue = [0, 1, 0, 0]\nclass = y[1]", fillcolor="#47e539"] ;
450 -> 451 ;
452 [label="gini = 0.0\nsamples = 4\nvalue = [4, 0, 0, 0]\nclass = y[0]", fillcolor="#e58139"] ;
450 -> 452 ;
453 [label="Accident <= 2.5\ngini = 0.247\nsamples = 166\nvalue = [24, 142, 0, 0]\nclass = y[1]", fillcolor="#66e95a"] ;
323 -> 453 ;
454 [label="Theft <= 3.5\ngini = 0.234\nsamples = 163\nvalue = [22, 141, 0, 0]\nclass = y[1]", fillcolor="#64e958"] ;
453 -> 454 ;
455 [label="RiskAversion <= 0.5\ngini = 0.174\nsamples = 114\nvalue = [11, 103, 0, 0]\nclass = y[1]", fillcolor="#5be84e"] ;
454 -> 455 ;
456 [label="MedCost <= 2.5\ngini = 0.282\nsamples = 47\nvalue = [8, 39, 0, 0]\nclass = y[1]", fillcolor="#6dea62"] ;
455 -> 456 ;
457 [label="Antilock <= 1.5\ngini = 0.258\nsamples = 46\nvalue = [7, 39, 0, 0]\nclass = y[1]", fillcolor="#68ea5d"] ;
456 -> 457 ;
458 [label="SocioEcon <= 0.5\ngini = 0.444\nsamples = 15\nvalue = [5, 10, 0, 0]\nclass = y[1]", fillcolor="#a3f29c"] ;
457 -> 458 ;
459 [label="gini = 0.0\nsamples = 7\nvalue = [0, 7, 0, 0]\nclass = y[1]", fillcolor="#47e539"] ;
458 -> 459 ;
460 [label="OtherCarCost <= 0.5\ngini = 0.469\nsamples = 8\nvalue = [5, 3, 0, 0]\nclass = y[0]", fillcolor="#f5cdb0"] ;
458 -> 460 ;
461 [label="gini = 0.0\nsamples = 2\nvalue = [0, 2, 0, 0]\nclass = y[1]", fillcolor="#47e539"] ;
460 -> 461 ;
462 [label="AntiTheft <= 0.5\ngini = 0.278\nsamples = 6\nvalue = [5, 1, 0, 0]\nclass = y[0]", fillcolor="#ea9a61"] ;
460 -> 462 ;
463 [label="gini = 0.0\nsamples = 1\nvalue = [0, 1, 0, 0]\nclass = y[1]", fillcolor="#47e539"] ;
462 -> 463 ;
464 [label="gini = 0.0\nsamples = 5\nvalue = [5, 0, 0, 0]\nclass = y[0]", fillcolor="#e58139"] ;
462 -> 464 ;
465 [label="SeniorTrain <= 2.5\ngini = 0.121\nsamples = 31\nvalue = [2, 29, 0, 0]\nclass = y[1]", fillcolor="#54e747"] ;
457 -> 465 ;
466 [label="gini = 0.0\nsamples = 26\nvalue = [0, 26, 0, 0]\nclass = y[1]", fillcolor="#47e539"] ;
465 -> 466 ;
467 [label="CarValue <= 0.5\ngini = 0.48\nsamples = 5\nvalue = [2, 3, 0, 0]\nclass = y[1]", fillcolor="#c2f6bd"] ;
465 -> 467 ;
468 [label="gini = 0.0\nsamples = 2\nvalue = [2, 0, 0, 0]\nclass = y[0]", fillcolor="#e58139"] ;
467 -> 468 ;
469 [label="gini = 0.0\nsamples = 3\nvalue = [0, 3, 0, 0]\nclass = y[1]", fillcolor="#47e539"] ;
467 -> 469 ;
470 [label="gini = 0.0\nsamples = 1\nvalue = [1, 0, 0, 0]\nclass = y[0]", fillcolor="#e58139"] ;
456 -> 470 ;
471 [label="SocioEcon <= 1.5\ngini = 0.086\nsamples = 67\nvalue = [3, 64, 0, 0]\nclass = y[1]", fillcolor="#50e642"] ;
455 -> 471 ;
472 [label="DrivQuality <= 0.5\ngini = 0.037\nsamples = 53\nvalue = [1, 52, 0, 0]\nclass = y[1]", fillcolor="#4be63d"] ;
471 -> 472 ;
473 [label="SocioEcon <= 0.5\ngini = 0.245\nsamples = 7\nvalue = [1, 6, 0, 0]\nclass = y[1]", fillcolor="#66e95a"] ;
472 -> 473 ;
474 [label="CarValue <= 2.5\ngini = 0.5\nsamples = 2\nvalue = [1, 1, 0, 0]\nclass = y[0]", fillcolor="#ffffff"] ;
473 -> 474 ;
475 [label="gini = 0.0\nsamples = 1\nvalue = [1, 0, 0, 0]\nclass = y[0]", fillcolor="#e58139"] ;
474 -> 475 ;
476 [label="gini = 0.0\nsamples = 1\nvalue = [0, 1, 0, 0]\nclass = y[1]", fillcolor="#47e539"] ;
474 -> 476 ;
477 [label="gini = 0.0\nsamples = 5\nvalue = [0, 5, 0, 0]\nclass = y[1]", fillcolor="#47e539"] ;
473 -> 477 ;
478 [label="gini = 0.0\nsamples = 46\nvalue = [0, 46, 0, 0]\nclass = y[1]", fillcolor="#47e539"] ;
472 -> 478 ;
479 [label="Cushioning <= 0.5\ngini = 0.245\nsamples = 14\nvalue = [2, 12, 0, 0]\nclass = y[1]", fillcolor="#66e95a"] ;
471 -> 479 ;
480 [label="gini = 0.0\nsamples = 1\nvalue = [1, 0, 0, 0]\nclass = y[0]", fillcolor="#e58139"] ;
479 -> 480 ;
481 [label="CarValue <= 2.5\ngini = 0.142\nsamples = 13\nvalue = [1, 12, 0, 0]\nclass = y[1]", fillcolor="#56e749"] ;
479 -> 481 ;
482 [label="gini = 0.0\nsamples = 11\nvalue = [0, 11, 0, 0]\nclass = y[1]", fillcolor="#47e539"] ;
481 -> 482 ;
483 [label="MedCost <= 0.5\ngini = 0.5\nsamples = 2\nvalue = [1, 1, 0, 0]\nclass = y[0]", fillcolor="#ffffff"] ;
481 -> 483 ;
484 [label="gini = 0.0\nsamples = 1\nvalue = [1, 0, 0, 0]\nclass = y[0]", fillcolor="#e58139"] ;
483 -> 484 ;
485 [label="gini = 0.0\nsamples = 1\nvalue = [0, 1, 0, 0]\nclass = y[1]", fillcolor="#47e539"] ;
483 -> 485 ;
486 [label="CarValue <= 2.5\ngini = 0.348\nsamples = 49\nvalue = [11, 38, 0, 0]\nclass = y[1]", fillcolor="#7ced72"] ;
454 -> 486 ;
487 [label="Accident <= 0.5\ngini = 0.438\nsamples = 34\nvalue = [11, 23, 0, 0]\nclass = y[1]", fillcolor="#9ff198"] ;
486 -> 487 ;
488 [label="RiskAversion <= 1.5\ngini = 0.444\nsamples = 3\nvalue = [2, 1, 0, 0]\nclass = y[0]", fillcolor="#f2c09c"] ;
487 -> 488 ;
489 [label="gini = 0.0\nsamples = 1\nvalue = [0, 1, 0, 0]\nclass = y[1]", fillcolor="#47e539"] ;
488 -> 489 ;
490 [label="gini = 0.0\nsamples = 2\nvalue = [2, 0, 0, 0]\nclass = y[0]", fillcolor="#e58139"] ;
488 -> 490 ;
491 [label="GoodStudent <= 0.5\ngini = 0.412\nsamples = 31\nvalue = [9, 22, 0, 0]\nclass = y[1]", fillcolor="#92f08a"] ;
487 -> 491 ;
492 [label="Airbag <= 2.0\ngini = 0.428\nsamples = 29\nvalue = [9, 20, 0, 0]\nclass = y[1]", fillcolor="#9af192"] ;
491 -> 492 ;
493 [label="gini = 0.0\nsamples = 2\nvalue = [0, 2, 0, 0]\nclass = y[1]", fillcolor="#47e539"] ;
492 -> 493 ;
494 [label="RiskAversion <= 0.5\ngini = 0.444\nsamples = 27\nvalue = [9, 18, 0, 0]\nclass = y[1]", fillcolor="#a3f29c"] ;
492 -> 494 ;
495 [label="MedCost <= 0.5\ngini = 0.494\nsamples = 9\nvalue = [4, 5, 0, 0]\nclass = y[1]", fillcolor="#dafad7"] ;
494 -> 495 ;
496 [label="gini = 0.0\nsamples = 3\nvalue = [0, 3, 0, 0]\nclass = y[1]", fillcolor="#47e539"] ;
495 -> 496 ;
497 [label="Mileage <= 0.5\ngini = 0.444\nsamples = 6\nvalue = [4, 2, 0, 0]\nclass = y[0]", fillcolor="#f2c09c"] ;
495 -> 497 ;
498 [label="Age <= 1.5\ngini = 0.444\nsamples = 3\nvalue = [1, 2, 0, 0]\nclass = y[1]", fillcolor="#a3f29c"] ;
497 -> 498 ;
499 [label="gini = 0.0\nsamples = 2\nvalue = [0, 2, 0, 0]\nclass = y[1]", fillcolor="#47e539"] ;
498 -> 499 ;
500 [label="gini = 0.0\nsamples = 1\nvalue = [1, 0, 0, 0]\nclass = y[0]", fillcolor="#e58139"] ;
498 -> 500 ;
501 [label="gini = 0.0\nsamples = 3\nvalue = [3, 0, 0, 0]\nclass = y[0]", fillcolor="#e58139"] ;
497 -> 501 ;
502 [label="Age <= 0.5\ngini = 0.401\nsamples = 18\nvalue = [5, 13, 0, 0]\nclass = y[1]", fillcolor="#8eef85"] ;
494 -> 502 ;
503 [label="gini = 0.0\nsamples = 1\nvalue = [1, 0, 0, 0]\nclass = y[0]", fillcolor="#e58139"] ;
502 -> 503 ;
504 [label="OtherCarCost <= 0.5\ngini = 0.36\nsamples = 17\nvalue = [4, 13, 0, 0]\nclass = y[1]", fillcolor="#80ed76"] ;
502 -> 504 ;
505 [label="gini = 0.0\nsamples = 4\nvalue = [0, 4, 0, 0]\nclass = y[1]", fillcolor="#47e539"] ;
504 -> 505 ;
506 [label="MakeModel <= 1.5\ngini = 0.426\nsamples = 13\nvalue = [4, 9, 0, 0]\nclass = y[1]", fillcolor="#99f191"] ;
504 -> 506 ;
507 [label="gini = 0.0\nsamples = 1\nvalue = [1, 0, 0, 0]\nclass = y[0]", fillcolor="#e58139"] ;
506 -> 507 ;
508 [label="DrivQuality <= 1.5\ngini = 0.375\nsamples = 12\nvalue = [3, 9, 0, 0]\nclass = y[1]", fillcolor="#84ee7b"] ;
506 -> 508 ;
509 [label="Mileage <= 0.5\ngini = 0.5\nsamples = 6\nvalue = [3, 3, 0, 0]\nclass = y[0]", fillcolor="#ffffff"] ;
508 -> 509 ;
510 [label="RiskAversion <= 1.5\ngini = 0.48\nsamples = 5\nvalue = [3, 2, 0, 0]\nclass = y[0]", fillcolor="#f6d5bd"] ;
509 -> 510 ;
511 [label="DrivQuality <= 0.5\ngini = 0.444\nsamples = 3\nvalue = [1, 2, 0, 0]\nclass = y[1]", fillcolor="#a3f29c"] ;
510 -> 511 ;
512 [label="gini = 0.0\nsamples = 1\nvalue = [1, 0, 0, 0]\nclass = y[0]", fillcolor="#e58139"] ;
511 -> 512 ;
513 [label="gini = 0.0\nsamples = 2\nvalue = [0, 2, 0, 0]\nclass = y[1]", fillcolor="#47e539"] ;
511 -> 513 ;
514 [label="gini = 0.0\nsamples = 2\nvalue = [2, 0, 0, 0]\nclass = y[0]", fillcolor="#e58139"] ;
510 -> 514 ;
515 [label="gini = 0.0\nsamples = 1\nvalue = [0, 1, 0, 0]\nclass = y[1]", fillcolor="#47e539"] ;
509 -> 515 ;
516 [label="gini = 0.0\nsamples = 6\nvalue = [0, 6, 0, 0]\nclass = y[1]", fillcolor="#47e539"] ;
508 -> 516 ;
517 [label="gini = 0.0\nsamples = 2\nvalue = [0, 2, 0, 0]\nclass = y[1]", fillcolor="#47e539"] ;
491 -> 517 ;
518 [label="gini = 0.0\nsamples = 15\nvalue = [0, 15, 0, 0]\nclass = y[1]", fillcolor="#47e539"] ;
486 -> 518 ;
519 [label="AntiTheft <= 1.0\ngini = 0.444\nsamples = 3\nvalue = [2, 1, 0, 0]\nclass = y[0]", fillcolor="#f2c09c"] ;
453 -> 519 ;
520 [label="gini = 0.0\nsamples = 2\nvalue = [2, 0, 0, 0]\nclass = y[0]", fillcolor="#e58139"] ;
519 -> 520 ;
521 [label="gini = 0.0\nsamples = 1\nvalue = [0, 1, 0, 0]\nclass = y[1]", fillcolor="#47e539"] ;
519 -> 521 ;
522 [label="PropCost <= 1.5\ngini = 0.51\nsamples = 97\nvalue = [1, 49, 47, 0]\nclass = y[1]", fillcolor="#f8fef7"] ;
274 -> 522 ;
523 [label="Airbag <= 1.5\ngini = 0.482\nsamples = 76\nvalue = [1, 28, 47, 0]\nclass = y[2]", fillcolor="#b1d8f5"] ;
522 -> 523 ;
524 [label="gini = 0.0\nsamples = 9\nvalue = [0, 0, 9, 0]\nclass = y[2]", fillcolor="#399de5"] ;
523 -> 524 ;
525 [label="RiskAversion <= 2.5\ngini = 0.503\nsamples = 67\nvalue = [1, 28, 38, 0]\nclass = y[2]", fillcolor="#cce6f8"] ;
523 -> 525 ;
526 [label="HomeBase <= 0.5\ngini = 0.511\nsamples = 63\nvalue = [1, 28, 34, 0]\nclass = y[2]", fillcolor="#ddeefb"] ;
525 -> 526 ;
527 [label="Age <= 0.5\ngini = 0.492\nsamples = 39\nvalue = [1, 14, 24, 0]\nclass = y[2]", fillcolor="#b0d8f5"] ;
526 -> 527 ;
528 [label="MedCost <= 1.0\ngini = 0.231\nsamples = 15\nvalue = [0, 2, 13, 0]\nclass = y[2]", fillcolor="#57ace9"] ;
527 -> 528 ;
529 [label="gini = 0.0\nsamples = 10\nvalue = [0, 0, 10, 0]\nclass = y[2]", fillcolor="#399de5"] ;
528 -> 529 ;
530 [label="RiskAversion <= 1.0\ngini = 0.48\nsamples = 5\nvalue = [0, 2, 3, 0]\nclass = y[2]", fillcolor="#bddef6"] ;
528 -> 530 ;
531 [label="gini = 0.0\nsamples = 2\nvalue = [0, 2, 0, 0]\nclass = y[1]", fillcolor="#47e539"] ;
530 -> 531 ;
532 [label="gini = 0.0\nsamples = 3\nvalue = [0, 0, 3, 0]\nclass = y[2]", fillcolor="#399de5"] ;
530 -> 532 ;
533 [label="SocioEcon <= 1.5\ngini = 0.538\nsamples = 24\nvalue = [1, 12, 11, 0]\nclass = y[1]", fillcolor="#f1fdf0"] ;
527 -> 533 ;
534 [label="DrivQuality <= 1.5\ngini = 0.515\nsamples = 20\nvalue = [1, 12, 7, 0]\nclass = y[1]", fillcolor="#b8f5b3"] ;
533 -> 534 ;
535 [label="ILiCost <= 1.5\ngini = 0.357\nsamples = 14\nvalue = [1, 11, 2, 0]\nclass = y[1]", fillcolor="#75ec6b"] ;
534 -> 535 ;
536 [label="MedCost <= 1.0\ngini = 0.26\nsamples = 13\nvalue = [0, 11, 2, 0]\nclass = y[1]", fillcolor="#68ea5d"] ;
535 -> 536 ;
537 [label="CarValue <= 1.0\ngini = 0.444\nsamples = 6\nvalue = [0, 4, 2, 0]\nclass = y[1]", fillcolor="#a3f29c"] ;
536 -> 537 ;
538 [label="gini = 0.0\nsamples = 3\nvalue = [0, 3, 0, 0]\nclass = y[1]", fillcolor="#47e539"] ;
537 -> 538 ;
539 [label="AntiTheft <= 0.5\ngini = 0.444\nsamples = 3\nvalue = [0, 1, 2, 0]\nclass = y[2]", fillcolor="#9ccef2"] ;
537 -> 539 ;
540 [label="gini = 0.0\nsamples = 2\nvalue = [0, 0, 2, 0]\nclass = y[2]", fillcolor="#399de5"] ;
539 -> 540 ;
541 [label="gini = 0.0\nsamples = 1\nvalue = [0, 1, 0, 0]\nclass = y[1]", fillcolor="#47e539"] ;
539 -> 541 ;
542 [label="gini = 0.0\nsamples = 7\nvalue = [0, 7, 0, 0]\nclass = y[1]", fillcolor="#47e539"] ;
536 -> 542 ;
543 [label="gini = 0.0\nsamples = 1\nvalue = [1, 0, 0, 0]\nclass = y[0]", fillcolor="#e58139"] ;
535 -> 543 ;
544 [label="Age <= 1.5\ngini = 0.278\nsamples = 6\nvalue = [0, 1, 5, 0]\nclass = y[2]", fillcolor="#61b1ea"] ;
534 -> 544 ;
545 [label="gini = 0.0\nsamples = 4\nvalue = [0, 0, 4, 0]\nclass = y[2]", fillcolor="#399de5"] ;
544 -> 545 ;
546 [label="Theft <= 2.5\ngini = 0.5\nsamples = 2\nvalue = [0, 1, 1, 0]\nclass = y[1]", fillcolor="#ffffff"] ;
544 -> 546 ;
547 [label="gini = 0.0\nsamples = 1\nvalue = [0, 1, 0, 0]\nclass = y[1]", fillcolor="#47e539"] ;
546 -> 547 ;
548 [label="gini = 0.0\nsamples = 1\nvalue = [0, 0, 1, 0]\nclass = y[2]", fillcolor="#399de5"] ;
546 -> 548 ;
549 [label="gini = 0.0\nsamples = 4\nvalue = [0, 0, 4, 0]\nclass = y[2]", fillcolor="#399de5"] ;
533 -> 549 ;
550 [label="DrivQuality <= 2.0\ngini = 0.486\nsamples = 24\nvalue = [0, 14, 10, 0]\nclass = y[1]", fillcolor="#caf8c6"] ;
526 -> 550 ;
551 [label="PropCost <= 0.5\ngini = 0.48\nsamples = 15\nvalue = [0, 6, 9, 0]\nclass = y[2]", fillcolor="#bddef6"] ;
550 -> 551 ;
552 [label="CarValue <= 1.0\ngini = 0.408\nsamples = 7\nvalue = [0, 5, 2, 0]\nclass = y[1]", fillcolor="#91ef88"] ;
551 -> 552 ;
553 [label="gini = 0.0\nsamples = 1\nvalue = [0, 0, 1, 0]\nclass = y[2]", fillcolor="#399de5"] ;
552 -> 553 ;
554 [label="Age <= 1.5\ngini = 0.278\nsamples = 6\nvalue = [0, 5, 1, 0]\nclass = y[1]", fillcolor="#6cea61"] ;
552 -> 554 ;
555 [label="gini = 0.0\nsamples = 4\nvalue = [0, 4, 0, 0]\nclass = y[1]", fillcolor="#47e539"] ;
554 -> 555 ;
556 [label="VehicleYear <= 0.5\ngini = 0.5\nsamples = 2\nvalue = [0, 1, 1, 0]\nclass = y[1]", fillcolor="#ffffff"] ;
554 -> 556 ;
557 [label="gini = 0.0\nsamples = 1\nvalue = [0, 1, 0, 0]\nclass = y[1]", fillcolor="#47e539"] ;
556 -> 557 ;
558 [label="gini = 0.0\nsamples = 1\nvalue = [0, 0, 1, 0]\nclass = y[2]", fillcolor="#399de5"] ;
556 -> 558 ;
559 [label="MakeModel <= 1.5\ngini = 0.219\nsamples = 8\nvalue = [0, 1, 7, 0]\nclass = y[2]", fillcolor="#55abe9"] ;
551 -> 559 ;
560 [label="gini = 0.0\nsamples = 1\nvalue = [0, 1, 0, 0]\nclass = y[1]", fillcolor="#47e539"] ;
559 -> 560 ;
561 [label="gini = 0.0\nsamples = 7\nvalue = [0, 0, 7, 0]\nclass = y[2]", fillcolor="#399de5"] ;
559 -> 561 ;
562 [label="ILiCost <= 1.5\ngini = 0.198\nsamples = 9\nvalue = [0, 8, 1, 0]\nclass = y[1]", fillcolor="#5ee852"] ;
550 -> 562 ;
563 [label="gini = 0.0\nsamples = 6\nvalue = [0, 6, 0, 0]\nclass = y[1]", fillcolor="#47e539"] ;
562 -> 563 ;
564 [label="Mileage <= 0.5\ngini = 0.444\nsamples = 3\nvalue = [0, 2, 1, 0]\nclass = y[1]", fillcolor="#a3f29c"] ;
562 -> 564 ;
565 [label="gini = 0.0\nsamples = 2\nvalue = [0, 2, 0, 0]\nclass = y[1]", fillcolor="#47e539"] ;
564 -> 565 ;
566 [label="gini = 0.0\nsamples = 1\nvalue = [0, 0, 1, 0]\nclass = y[2]", fillcolor="#399de5"] ;
564 -> 566 ;
567 [label="gini = 0.0\nsamples = 4\nvalue = [0, 0, 4, 0]\nclass = y[2]", fillcolor="#399de5"] ;
525 -> 567 ;
568 [label="gini = 0.0\nsamples = 21\nvalue = [0, 21, 0, 0]\nclass = y[1]", fillcolor="#47e539"] ;
522 -> 568 ;
569 [label="PropCost <= 1.5\ngini = 0.218\nsamples = 1743\nvalue = [1, 216, 1526, 0]\nclass = y[2]", fillcolor="#55abe9"] ;
1 -> 569 ;
570 [label="RuggedAuto <= 0.5\ngini = 0.126\nsamples = 1376\nvalue = [0, 93, 1283, 0]\nclass = y[2]", fillcolor="#47a4e7"] ;
569 -> 570 ;
571 [label="OtherCar <= 2.5\ngini = 0.17\nsamples = 737\nvalue = [0, 69, 668, 0]\nclass = y[2]", fillcolor="#4da7e8"] ;
570 -> 571 ;
572 [label="MedCost <= 2.0\ngini = 0.125\nsamples = 461\nvalue = [0, 31, 430, 0]\nclass = y[2]", fillcolor="#47a4e7"] ;
571 -> 572 ;
573 [label="Theft <= 0.5\ngini = 0.034\nsamples = 117\nvalue = [0, 2, 115, 0]\nclass = y[2]", fillcolor="#3c9fe5"] ;
572 -> 573 ;
574 [label="SocioEcon <= 1.5\ngini = 0.375\nsamples = 4\nvalue = [0, 1, 3, 0]\nclass = y[2]", fillcolor="#7bbeee"] ;
573 -> 574 ;
575 [label="RiskAversion <= 1.0\ngini = 0.5\nsamples = 2\nvalue = [0, 1, 1, 0]\nclass = y[1]", fillcolor="#ffffff"] ;
574 -> 575 ;
576 [label="gini = 0.0\nsamples = 1\nvalue = [0, 1, 0, 0]\nclass = y[1]", fillcolor="#47e539"] ;
575 -> 576 ;
577 [label="gini = 0.0\nsamples = 1\nvalue = [0, 0, 1, 0]\nclass = y[2]", fillcolor="#399de5"] ;
575 -> 577 ;
578 [label="gini = 0.0\nsamples = 2\nvalue = [0, 0, 2, 0]\nclass = y[2]", fillcolor="#399de5"] ;
574 -> 578 ;
579 [label="Age <= 1.5\ngini = 0.018\nsamples = 113\nvalue = [0, 1, 112, 0]\nclass = y[2]", fillcolor="#3b9ee5"] ;
573 -> 579 ;
580 [label="gini = 0.0\nsamples = 94\nvalue = [0, 0, 94, 0]\nclass = y[2]", fillcolor="#399de5"] ;
579 -> 580 ;
581 [label="AntiTheft <= 1.5\ngini = 0.1\nsamples = 19\nvalue = [0, 1, 18, 0]\nclass = y[2]", fillcolor="#44a2e6"] ;
579 -> 581 ;
582 [label="gini = 0.0\nsamples = 14\nvalue = [0, 0, 14, 0]\nclass = y[2]", fillcolor="#399de5"] ;
581 -> 582 ;
583 [label="Accident <= 2.0\ngini = 0.32\nsamples = 5\nvalue = [0, 1, 4, 0]\nclass = y[2]", fillcolor="#6ab6ec"] ;
581 -> 583 ;
584 [label="gini = 0.0\nsamples = 4\nvalue = [0, 0, 4, 0]\nclass = y[2]", fillcolor="#399de5"] ;
583 -> 584 ;
585 [label="gini = 0.0\nsamples = 1\nvalue = [0, 1, 0, 0]\nclass = y[1]", fillcolor="#47e539"] ;
583 -> 585 ;
586 [label="ILiCost <= 0.5\ngini = 0.154\nsamples = 344\nvalue = [0, 29, 315, 0]\nclass = y[2]", fillcolor="#4ba6e7"] ;
572 -> 586 ;
587 [label="HomeBase <= 0.5\ngini = 0.125\nsamples = 238\nvalue = [0, 16, 222, 0]\nclass = y[2]", fillcolor="#47a4e7"] ;
586 -> 587 ;
588 [label="PropCost <= 0.5\ngini = 0.147\nsamples = 201\nvalue = [0, 16, 185, 0]\nclass = y[2]", fillcolor="#4aa5e7"] ;
587 -> 588 ;
589 [label="AntiTheft <= 0.5\ngini = 0.1\nsamples = 95\nvalue = [0, 5, 90, 0]\nclass = y[2]", fillcolor="#44a2e6"] ;
588 -> 589 ;
590 [label="CarValue <= 1.5\ngini = 0.027\nsamples = 74\nvalue = [0, 1, 73, 0]\nclass = y[2]", fillcolor="#3c9ee5"] ;
589 -> 590 ;
591 [label="gini = 0.0\nsamples = 51\nvalue = [0, 0, 51, 0]\nclass = y[2]", fillcolor="#399de5"] ;
590 -> 591 ;
592 [label="Age <= 0.5\ngini = 0.083\nsamples = 23\nvalue = [0, 1, 22, 0]\nclass = y[2]", fillcolor="#42a1e6"] ;
590 -> 592 ;
593 [label="CarValue <= 2.5\ngini = 0.32\nsamples = 5\nvalue = [0, 1, 4, 0]\nclass = y[2]", fillcolor="#6ab6ec"] ;
592 -> 593 ;
594 [label="DrivQuality <= 2.0\ngini = 0.5\nsamples = 2\nvalue = [0, 1, 1, 0]\nclass = y[1]", fillcolor="#ffffff"] ;
593 -> 594 ;
595 [label="gini = 0.0\nsamples = 1\nvalue = [0, 1, 0, 0]\nclass = y[1]", fillcolor="#47e539"] ;
594 -> 595 ;
596 [label="gini = 0.0\nsamples = 1\nvalue = [0, 0, 1, 0]\nclass = y[2]", fillcolor="#399de5"] ;
594 -> 596 ;
597 [label="gini = 0.0\nsamples = 3\nvalue = [0, 0, 3, 0]\nclass = y[2]", fillcolor="#399de5"] ;
593 -> 597 ;
598 [label="gini = 0.0\nsamples = 18\nvalue = [0, 0, 18, 0]\nclass = y[2]", fillcolor="#399de5"] ;
592 -> 598 ;
599 [label="Age <= 0.5\ngini = 0.308\nsamples = 21\nvalue = [0, 4, 17, 0]\nclass = y[2]", fillcolor="#68b4eb"] ;
589 -> 599 ;
600 [label="gini = 0.0\nsamples = 10\nvalue = [0, 0, 10, 0]\nclass = y[2]", fillcolor="#399de5"] ;
599 -> 600 ;
601 [label="Antilock <= 1.5\ngini = 0.463\nsamples = 11\nvalue = [0, 4, 7, 0]\nclass = y[2]", fillcolor="#aad5f4"] ;
599 -> 601 ;
602 [label="gini = 0.0\nsamples = 1\nvalue = [0, 1, 0, 0]\nclass = y[1]", fillcolor="#47e539"] ;
601 -> 602 ;
603 [label="DrivQuality <= 1.5\ngini = 0.42\nsamples = 10\nvalue = [0, 3, 7, 0]\nclass = y[2]", fillcolor="#8ec7f0"] ;
601 -> 603 ;
604 [label="OtherCar <= 1.5\ngini = 0.245\nsamples = 7\nvalue = [0, 1, 6, 0]\nclass = y[2]", fillcolor="#5aade9"] ;
603 -> 604 ;
605 [label="gini = 0.0\nsamples = 4\nvalue = [0, 0, 4, 0]\nclass = y[2]", fillcolor="#399de5"] ;
604 -> 605 ;
606 [label="RiskAversion <= 1.0\ngini = 0.444\nsamples = 3\nvalue = [0, 1, 2, 0]\nclass = y[2]", fillcolor="#9ccef2"] ;
604 -> 606 ;
607 [label="gini = 0.0\nsamples = 1\nvalue = [0, 0, 1, 0]\nclass = y[2]", fillcolor="#399de5"] ;
606 -> 607 ;
608 [label="OtherCarCost <= 0.5\ngini = 0.5\nsamples = 2\nvalue = [0, 1, 1, 0]\nclass = y[1]", fillcolor="#ffffff"] ;
606 -> 608 ;
609 [label="gini = 0.0\nsamples = 1\nvalue = [0, 1, 0, 0]\nclass = y[1]", fillcolor="#47e539"] ;
608 -> 609 ;
610 [label="gini = 0.0\nsamples = 1\nvalue = [0, 0, 1, 0]\nclass = y[2]", fillcolor="#399de5"] ;
608 -> 610 ;
611 [label="Theft <= 3.5\ngini = 0.444\nsamples = 3\nvalue = [0, 2, 1, 0]\nclass = y[1]", fillcolor="#a3f29c"] ;
603 -> 611 ;
612 [label="gini = 0.0\nsamples = 2\nvalue = [0, 2, 0, 0]\nclass = y[1]", fillcolor="#47e539"] ;
611 -> 612 ;
613 [label="gini = 0.0\nsamples = 1\nvalue = [0, 0, 1, 0]\nclass = y[2]", fillcolor="#399de5"] ;
611 -> 613 ;
614 [label="Cushioning <= 0.5\ngini = 0.186\nsamples = 106\nvalue = [0, 11, 95, 0]\nclass = y[2]", fillcolor="#50a8e8"] ;
588 -> 614 ;
615 [label="Theft <= 3.5\ngini = 0.148\nsamples = 87\nvalue = [0, 7, 80, 0]\nclass = y[2]", fillcolor="#4aa6e7"] ;
614 -> 615 ;
616 [label="OtherCarCost <= 0.5\ngini = 0.115\nsamples = 82\nvalue = [0, 5, 77, 0]\nclass = y[2]", fillcolor="#46a3e7"] ;
615 -> 616 ;
617 [label="gini = 0.0\nsamples = 33\nvalue = [0, 0, 33, 0]\nclass = y[2]", fillcolor="#399de5"] ;
616 -> 617 ;
618 [label="DrivQuality <= 2.5\ngini = 0.183\nsamples = 49\nvalue = [0, 5, 44, 0]\nclass = y[2]", fillcolor="#50a8e8"] ;
616 -> 618 ;
619 [label="AntiTheft <= 1.0\ngini = 0.108\nsamples = 35\nvalue = [0, 2, 33, 0]\nclass = y[2]", fillcolor="#45a3e7"] ;
618 -> 619 ;
620 [label="SocioEcon <= 0.5\ngini = 0.32\nsamples = 10\nvalue = [0, 2, 8, 0]\nclass = y[2]", fillcolor="#6ab6ec"] ;
619 -> 620 ;
621 [label="Age <= 0.5\ngini = 0.48\nsamples = 5\nvalue = [0, 2, 3, 0]\nclass = y[2]", fillcolor="#bddef6"] ;
620 -> 621 ;
622 [label="gini = 0.0\nsamples = 1\nvalue = [0, 1, 0, 0]\nclass = y[1]", fillcolor="#47e539"] ;
621 -> 622 ;
623 [label="DrivQuality <= 0.5\ngini = 0.375\nsamples = 4\nvalue = [0, 1, 3, 0]\nclass = y[2]", fillcolor="#7bbeee"] ;
621 -> 623 ;
624 [label="gini = 0.0\nsamples = 1\nvalue = [0, 1, 0, 0]\nclass = y[1]", fillcolor="#47e539"] ;
623 -> 624 ;
625 [label="gini = 0.0\nsamples = 3\nvalue = [0, 0, 3, 0]\nclass = y[2]", fillcolor="#399de5"] ;
623 -> 625 ;
626 [label="gini = 0.0\nsamples = 5\nvalue = [0, 0, 5, 0]\nclass = y[2]", fillcolor="#399de5"] ;
620 -> 626 ;
627 [label="gini = 0.0\nsamples = 25\nvalue = [0, 0, 25, 0]\nclass = y[2]", fillcolor="#399de5"] ;
619 -> 627 ;
628 [label="AntiTheft <= 1.0\ngini = 0.337\nsamples = 14\nvalue = [0, 3, 11, 0]\nclass = y[2]", fillcolor="#6fb8ec"] ;
618 -> 628 ;
629 [label="gini = 0.0\nsamples = 5\nvalue = [0, 0, 5, 0]\nclass = y[2]", fillcolor="#399de5"] ;
628 -> 629 ;
630 [label="Accident <= 1.5\ngini = 0.444\nsamples = 9\nvalue = [0, 3, 6, 0]\nclass = y[2]", fillcolor="#9ccef2"] ;
628 -> 630 ;
631 [label="Theft <= 2.0\ngini = 0.375\nsamples = 8\nvalue = [0, 2, 6, 0]\nclass = y[2]", fillcolor="#7bbeee"] ;
630 -> 631 ;
632 [label="RiskAversion <= 1.0\ngini = 0.48\nsamples = 5\nvalue = [0, 2, 3, 0]\nclass = y[2]", fillcolor="#bddef6"] ;
631 -> 632 ;
633 [label="gini = 0.0\nsamples = 2\nvalue = [0, 0, 2, 0]\nclass = y[2]", fillcolor="#399de5"] ;
632 -> 633 ;
634 [label="RiskAversion <= 2.5\ngini = 0.444\nsamples = 3\nvalue = [0, 2, 1, 0]\nclass = y[1]", fillcolor="#a3f29c"] ;
632 -> 634 ;
635 [label="gini = 0.0\nsamples = 2\nvalue = [0, 2, 0, 0]\nclass = y[1]", fillcolor="#47e539"] ;
634 -> 635 ;
636 [label="gini = 0.0\nsamples = 1\nvalue = [0, 0, 1, 0]\nclass = y[2]", fillcolor="#399de5"] ;
634 -> 636 ;
637 [label="gini = 0.0\nsamples = 3\nvalue = [0, 0, 3, 0]\nclass = y[2]", fillcolor="#399de5"] ;
631 -> 637 ;
638 [label="gini = 0.0\nsamples = 1\nvalue = [0, 1, 0, 0]\nclass = y[1]", fillcolor="#47e539"] ;
630 -> 638 ;
639 [label="Age <= 0.5\ngini = 0.48\nsamples = 5\nvalue = [0, 2, 3, 0]\nclass = y[2]", fillcolor="#bddef6"] ;
615 -> 639 ;
640 [label="OtherCar <= 1.5\ngini = 0.444\nsamples = 3\nvalue = [0, 2, 1, 0]\nclass = y[1]", fillcolor="#a3f29c"] ;
639 -> 640 ;
641 [label="gini = 0.0\nsamples = 2\nvalue = [0, 2, 0, 0]\nclass = y[1]", fillcolor="#47e539"] ;
640 -> 641 ;
642 [label="gini = 0.0\nsamples = 1\nvalue = [0, 0, 1, 0]\nclass = y[2]", fillcolor="#399de5"] ;
640 -> 642 ;
643 [label="gini = 0.0\nsamples = 2\nvalue = [0, 0, 2, 0]\nclass = y[2]", fillcolor="#399de5"] ;
639 -> 643 ;
644 [label="SocioEcon <= 0.5\ngini = 0.332\nsamples = 19\nvalue = [0, 4, 15, 0]\nclass = y[2]", fillcolor="#6eb7ec"] ;
614 -> 644 ;
645 [label="gini = 0.0\nsamples = 8\nvalue = [0, 0, 8, 0]\nclass = y[2]", fillcolor="#399de5"] ;
644 -> 645 ;
646 [label="Airbag <= 2.5\ngini = 0.463\nsamples = 11\nvalue = [0, 4, 7, 0]\nclass = y[2]", fillcolor="#aad5f4"] ;
644 -> 646 ;
647 [label="gini = 0.0\nsamples = 3\nvalue = [0, 0, 3, 0]\nclass = y[2]", fillcolor="#399de5"] ;
646 -> 647 ;
648 [label="Theft <= 3.5\ngini = 0.5\nsamples = 8\nvalue = [0, 4, 4, 0]\nclass = y[1]", fillcolor="#ffffff"] ;
646 -> 648 ;
649 [label="RiskAversion <= 1.0\ngini = 0.444\nsamples = 6\nvalue = [0, 4, 2, 0]\nclass = y[1]", fillcolor="#a3f29c"] ;
648 -> 649 ;
650 [label="VehicleYear <= 0.5\ngini = 0.444\nsamples = 3\nvalue = [0, 1, 2, 0]\nclass = y[2]", fillcolor="#9ccef2"] ;
649 -> 650 ;
651 [label="gini = 0.0\nsamples = 2\nvalue = [0, 0, 2, 0]\nclass = y[2]", fillcolor="#399de5"] ;
650 -> 651 ;
652 [label="gini = 0.0\nsamples = 1\nvalue = [0, 1, 0, 0]\nclass = y[1]", fillcolor="#47e539"] ;
650 -> 652 ;
653 [label="gini = 0.0\nsamples = 3\nvalue = [0, 3, 0, 0]\nclass = y[1]", fillcolor="#47e539"] ;
649 -> 653 ;
654 [label="gini = 0.0\nsamples = 2\nvalue = [0, 0, 2, 0]\nclass = y[2]", fillcolor="#399de5"] ;
648 -> 654 ;
655 [label="gini = 0.0\nsamples = 37\nvalue = [0, 0, 37, 0]\nclass = y[2]", fillcolor="#399de5"] ;
587 -> 655 ;
656 [label="AntiTheft <= 0.5\ngini = 0.215\nsamples = 106\nvalue = [0, 13, 93, 0]\nclass = y[2]", fillcolor="#55abe9"] ;
586 -> 656 ;
657 [label="Theft <= 2.0\ngini = 0.305\nsamples = 64\nvalue = [0, 12, 52, 0]\nclass = y[2]", fillcolor="#67b4eb"] ;
656 -> 657 ;
658 [label="Cushioning <= 0.5\ngini = 0.201\nsamples = 44\nvalue = [0, 5, 39, 0]\nclass = y[2]", fillcolor="#52aae8"] ;
657 -> 658 ;
659 [label="RiskAversion <= 1.5\ngini = 0.169\nsamples = 43\nvalue = [0, 4, 39, 0]\nclass = y[2]", fillcolor="#4da7e8"] ;
658 -> 659 ;
660 [label="DrivQuality <= 0.5\ngini = 0.067\nsamples = 29\nvalue = [0, 1, 28, 0]\nclass = y[2]", fillcolor="#40a0e6"] ;
659 -> 660 ;
661 [label="Age <= 0.5\ngini = 0.444\nsamples = 3\nvalue = [0, 1, 2, 0]\nclass = y[2]", fillcolor="#9ccef2"] ;
660 -> 661 ;
662 [label="gini = 0.0\nsamples = 1\nvalue = [0, 1, 0, 0]\nclass = y[1]", fillcolor="#47e539"] ;
661 -> 662 ;
663 [label="gini = 0.0\nsamples = 2\nvalue = [0, 0, 2, 0]\nclass = y[2]", fillcolor="#399de5"] ;
661 -> 663 ;
664 [label="gini = 0.0\nsamples = 26\nvalue = [0, 0, 26, 0]\nclass = y[2]", fillcolor="#399de5"] ;
660 -> 664 ;
665 [label="Antilock <= 1.5\ngini = 0.337\nsamples = 14\nvalue = [0, 3, 11, 0]\nclass = y[2]", fillcolor="#6fb8ec"] ;
659 -> 665 ;
666 [label="gini = 0.0\nsamples = 1\nvalue = [0, 1, 0, 0]\nclass = y[1]", fillcolor="#47e539"] ;
665 -> 666 ;
667 [label="HomeBase <= 0.5\ngini = 0.26\nsamples = 13\nvalue = [0, 2, 11, 0]\nclass = y[2]", fillcolor="#5dafea"] ;
665 -> 667 ;
668 [label="Age <= 1.5\ngini = 0.165\nsamples = 11\nvalue = [0, 1, 10, 0]\nclass = y[2]", fillcolor="#4da7e8"] ;
667 -> 668 ;
669 [label="gini = 0.0\nsamples = 8\nvalue = [0, 0, 8, 0]\nclass = y[2]", fillcolor="#399de5"] ;
668 -> 669 ;
670 [label="ILiCost <= 1.5\ngini = 0.444\nsamples = 3\nvalue = [0, 1, 2, 0]\nclass = y[2]", fillcolor="#9ccef2"] ;
668 -> 670 ;
671 [label="gini = 0.0\nsamples = 1\nvalue = [0, 1, 0, 0]\nclass = y[1]", fillcolor="#47e539"] ;
670 -> 671 ;
672 [label="gini = 0.0\nsamples = 2\nvalue = [0, 0, 2, 0]\nclass = y[2]", fillcolor="#399de5"] ;
670 -> 672 ;
673 [label="OtherCar <= 1.5\ngini = 0.5\nsamples = 2\nvalue = [0, 1, 1, 0]\nclass = y[1]", fillcolor="#ffffff"] ;
667 -> 673 ;
674 [label="gini = 0.0\nsamples = 1\nvalue = [0, 1, 0, 0]\nclass = y[1]", fillcolor="#47e539"] ;
673 -> 674 ;
675 [label="gini = 0.0\nsamples = 1\nvalue = [0, 0, 1, 0]\nclass = y[2]", fillcolor="#399de5"] ;
673 -> 675 ;
676 [label="gini = 0.0\nsamples = 1\nvalue = [0, 1, 0, 0]\nclass = y[1]", fillcolor="#47e539"] ;
658 -> 676 ;
677 [label="SocioEcon <= 0.5\ngini = 0.455\nsamples = 20\nvalue = [0, 7, 13, 0]\nclass = y[2]", fillcolor="#a4d2f3"] ;
657 -> 677 ;
678 [label="DrivQuality <= 2.0\ngini = 0.444\nsamples = 6\nvalue = [0, 4, 2, 0]\nclass = y[1]", fillcolor="#a3f29c"] ;
677 -> 678 ;
679 [label="gini = 0.0\nsamples = 4\nvalue = [0, 4, 0, 0]\nclass = y[1]", fillcolor="#47e539"] ;
678 -> 679 ;
680 [label="gini = 0.0\nsamples = 2\nvalue = [0, 0, 2, 0]\nclass = y[2]", fillcolor="#399de5"] ;
678 -> 680 ;
681 [label="Cushioning <= 0.5\ngini = 0.337\nsamples = 14\nvalue = [0, 3, 11, 0]\nclass = y[2]", fillcolor="#6fb8ec"] ;
677 -> 681 ;
682 [label="OtherCar <= 1.5\ngini = 0.49\nsamples = 7\nvalue = [0, 3, 4, 0]\nclass = y[2]", fillcolor="#cee6f8"] ;
681 -> 682 ;
683 [label="CarValue <= 0.5\ngini = 0.32\nsamples = 5\nvalue = [0, 1, 4, 0]\nclass = y[2]", fillcolor="#6ab6ec"] ;
682 -> 683 ;
684 [label="gini = 0.0\nsamples = 3\nvalue = [0, 0, 3, 0]\nclass = y[2]", fillcolor="#399de5"] ;
683 -> 684 ;
685 [label="OtherCarCost <= 0.5\ngini = 0.5\nsamples = 2\nvalue = [0, 1, 1, 0]\nclass = y[1]", fillcolor="#ffffff"] ;
683 -> 685 ;
686 [label="gini = 0.0\nsamples = 1\nvalue = [0, 1, 0, 0]\nclass = y[1]", fillcolor="#47e539"] ;
685 -> 686 ;
687 [label="gini = 0.0\nsamples = 1\nvalue = [0, 0, 1, 0]\nclass = y[2]", fillcolor="#399de5"] ;
685 -> 687 ;
688 [label="gini = 0.0\nsamples = 2\nvalue = [0, 2, 0, 0]\nclass = y[1]", fillcolor="#47e539"] ;
682 -> 688 ;
689 [label="gini = 0.0\nsamples = 7\nvalue = [0, 0, 7, 0]\nclass = y[2]", fillcolor="#399de5"] ;
681 -> 689 ;
690 [label="CarValue <= 2.5\ngini = 0.046\nsamples = 42\nvalue = [0, 1, 41, 0]\nclass = y[2]", fillcolor="#3e9fe6"] ;
656 -> 690 ;
691 [label="gini = 0.0\nsamples = 36\nvalue = [0, 0, 36, 0]\nclass = y[2]", fillcolor="#399de5"] ;
690 -> 691 ;
692 [label="PropCost <= 0.5\ngini = 0.278\nsamples = 6\nvalue = [0, 1, 5, 0]\nclass = y[2]", fillcolor="#61b1ea"] ;
690 -> 692 ;
693 [label="Airbag <= 2.5\ngini = 0.5\nsamples = 2\nvalue = [0, 1, 1, 0]\nclass = y[1]", fillcolor="#ffffff"] ;
692 -> 693 ;
694 [label="gini = 0.0\nsamples = 1\nvalue = [0, 0, 1, 0]\nclass = y[2]", fillcolor="#399de5"] ;
693 -> 694 ;
695 [label="gini = 0.0\nsamples = 1\nvalue = [0, 1, 0, 0]\nclass = y[1]", fillcolor="#47e539"] ;
693 -> 695 ;
696 [label="gini = 0.0\nsamples = 4\nvalue = [0, 0, 4, 0]\nclass = y[2]", fillcolor="#399de5"] ;
692 -> 696 ;
697 [label="DrivQuality <= 0.5\ngini = 0.237\nsamples = 276\nvalue = [0, 38, 238, 0]\nclass = y[2]", fillcolor="#59ade9"] ;
571 -> 697 ;
698 [label="Theft <= 3.5\ngini = 0.375\nsamples = 40\nvalue = [0, 10, 30, 0]\nclass = y[2]", fillcolor="#7bbeee"] ;
697 -> 698 ;
699 [label="ILiCost <= 1.5\ngini = 0.313\nsamples = 36\nvalue = [0, 7, 29, 0]\nclass = y[2]", fillcolor="#69b5eb"] ;
698 -> 699 ;
700 [label="OtherCarCost <= 0.5\ngini = 0.142\nsamples = 26\nvalue = [0, 2, 24, 0]\nclass = y[2]", fillcolor="#49a5e7"] ;
699 -> 700 ;
701 [label="gini = 0.0\nsamples = 9\nvalue = [0, 0, 9, 0]\nclass = y[2]", fillcolor="#399de5"] ;
700 -> 701 ;
702 [label="Airbag <= 2.5\ngini = 0.208\nsamples = 17\nvalue = [0, 2, 15, 0]\nclass = y[2]", fillcolor="#53aae8"] ;
700 -> 702 ;
703 [label="Accident <= 1.0\ngini = 0.444\nsamples = 3\nvalue = [0, 1, 2, 0]\nclass = y[2]", fillcolor="#9ccef2"] ;
702 -> 703 ;
704 [label="gini = 0.0\nsamples = 1\nvalue = [0, 1, 0, 0]\nclass = y[1]", fillcolor="#47e539"] ;
703 -> 704 ;
705 [label="gini = 0.0\nsamples = 2\nvalue = [0, 0, 2, 0]\nclass = y[2]", fillcolor="#399de5"] ;
703 -> 705 ;
706 [label="VehicleYear <= 0.5\ngini = 0.133\nsamples = 14\nvalue = [0, 1, 13, 0]\nclass = y[2]", fillcolor="#48a5e7"] ;
702 -> 706 ;
707 [label="PropCost <= 0.5\ngini = 0.375\nsamples = 4\nvalue = [0, 1, 3, 0]\nclass = y[2]", fillcolor="#7bbeee"] ;
706 -> 707 ;
708 [label="gini = 0.0\nsamples = 1\nvalue = [0, 1, 0, 0]\nclass = y[1]", fillcolor="#47e539"] ;
707 -> 708 ;
709 [label="gini = 0.0\nsamples = 3\nvalue = [0, 0, 3, 0]\nclass = y[2]", fillcolor="#399de5"] ;
707 -> 709 ;
710 [label="gini = 0.0\nsamples = 10\nvalue = [0, 0, 10, 0]\nclass = y[2]", fillcolor="#399de5"] ;
706 -> 710 ;
711 [label="Age <= 0.5\ngini = 0.5\nsamples = 10\nvalue = [0, 5, 5, 0]\nclass = y[1]", fillcolor="#ffffff"] ;
699 -> 711 ;
712 [label="gini = 0.0\nsamples = 3\nvalue = [0, 3, 0, 0]\nclass = y[1]", fillcolor="#47e539"] ;
711 -> 712 ;
713 [label="AntiTheft <= 1.0\ngini = 0.408\nsamples = 7\nvalue = [0, 2, 5, 0]\nclass = y[2]", fillcolor="#88c4ef"] ;
711 -> 713 ;
714 [label="gini = 0.0\nsamples = 5\nvalue = [0, 0, 5, 0]\nclass = y[2]", fillcolor="#399de5"] ;
713 -> 714 ;
715 [label="gini = 0.0\nsamples = 2\nvalue = [0, 2, 0, 0]\nclass = y[1]", fillcolor="#47e539"] ;
713 -> 715 ;
716 [label="Antilock <= 1.5\ngini = 0.375\nsamples = 4\nvalue = [0, 3, 1, 0]\nclass = y[1]", fillcolor="#84ee7b"] ;
698 -> 716 ;
717 [label="gini = 0.0\nsamples = 1\nvalue = [0, 0, 1, 0]\nclass = y[2]", fillcolor="#399de5"] ;
716 -> 717 ;
718 [label="gini = 0.0\nsamples = 3\nvalue = [0, 3, 0, 0]\nclass = y[1]", fillcolor="#47e539"] ;
716 -> 718 ;
719 [label="Theft <= 0.5\ngini = 0.209\nsamples = 236\nvalue = [0, 28, 208, 0]\nclass = y[2]", fillcolor="#54aae8"] ;
697 -> 719 ;
720 [label="ILiCost <= 0.5\ngini = 0.48\nsamples = 5\nvalue = [0, 2, 3, 0]\nclass = y[2]", fillcolor="#bddef6"] ;
719 -> 720 ;
721 [label="gini = 0.0\nsamples = 3\nvalue = [0, 0, 3, 0]\nclass = y[2]", fillcolor="#399de5"] ;
720 -> 721 ;
722 [label="gini = 0.0\nsamples = 2\nvalue = [0, 2, 0, 0]\nclass = y[1]", fillcolor="#47e539"] ;
720 -> 722 ;
723 [label="Airbag <= 1.5\ngini = 0.2\nsamples = 231\nvalue = [0, 26, 205, 0]\nclass = y[2]", fillcolor="#52a9e8"] ;
719 -> 723 ;
724 [label="gini = 0.0\nsamples = 20\nvalue = [0, 0, 20, 0]\nclass = y[2]", fillcolor="#399de5"] ;
723 -> 724 ;
725 [label="SocioEcon <= 1.5\ngini = 0.216\nsamples = 211\nvalue = [0, 26, 185, 0]\nclass = y[2]", fillcolor="#55abe9"] ;
723 -> 725 ;
726 [label="Mileage <= 0.5\ngini = 0.236\nsamples = 183\nvalue = [0, 25, 158, 0]\nclass = y[2]", fillcolor="#58ade9"] ;
725 -> 726 ;
727 [label="Age <= 0.5\ngini = 0.213\nsamples = 173\nvalue = [0, 21, 152, 0]\nclass = y[2]", fillcolor="#54abe9"] ;
726 -> 727 ;
728 [label="CarValue <= 1.5\ngini = 0.146\nsamples = 63\nvalue = [0, 5, 58, 0]\nclass = y[2]", fillcolor="#4aa5e7"] ;
727 -> 728 ;
729 [label="HomeBase <= 0.5\ngini = 0.083\nsamples = 46\nvalue = [0, 2, 44, 0]\nclass = y[2]", fillcolor="#42a1e6"] ;
728 -> 729 ;
730 [label="Airbag <= 2.5\ngini = 0.045\nsamples = 43\nvalue = [0, 1, 42, 0]\nclass = y[2]", fillcolor="#3e9fe6"] ;
729 -> 730 ;
731 [label="DrivQuality <= 2.0\ngini = 0.278\nsamples = 6\nvalue = [0, 1, 5, 0]\nclass = y[2]", fillcolor="#61b1ea"] ;
730 -> 731 ;
732 [label="gini = 0.0\nsamples = 1\nvalue = [0, 1, 0, 0]\nclass = y[1]", fillcolor="#47e539"] ;
731 -> 732 ;
733 [label="gini = 0.0\nsamples = 5\nvalue = [0, 0, 5, 0]\nclass = y[2]", fillcolor="#399de5"] ;
731 -> 733 ;
734 [label="gini = 0.0\nsamples = 37\nvalue = [0, 0, 37, 0]\nclass = y[2]", fillcolor="#399de5"] ;
730 -> 734 ;
735 [label="GoodStudent <= 0.5\ngini = 0.444\nsamples = 3\nvalue = [0, 1, 2, 0]\nclass = y[2]", fillcolor="#9ccef2"] ;
729 -> 735 ;
736 [label="gini = 0.0\nsamples = 1\nvalue = [0, 1, 0, 0]\nclass = y[1]", fillcolor="#47e539"] ;
735 -> 736 ;
737 [label="gini = 0.0\nsamples = 2\nvalue = [0, 0, 2, 0]\nclass = y[2]", fillcolor="#399de5"] ;
735 -> 737 ;
738 [label="SeniorTrain <= 2.5\ngini = 0.291\nsamples = 17\nvalue = [0, 3, 14, 0]\nclass = y[2]", fillcolor="#63b2eb"] ;
728 -> 738 ;
739 [label="MedCost <= 1.5\ngini = 0.219\nsamples = 16\nvalue = [0, 2, 14, 0]\nclass = y[2]", fillcolor="#55abe9"] ;
738 -> 739 ;
740 [label="SeniorTrain <= 1.0\ngini = 0.408\nsamples = 7\nvalue = [0, 2, 5, 0]\nclass = y[2]", fillcolor="#88c4ef"] ;
739 -> 740 ;
741 [label="HomeBase <= 0.5\ngini = 0.444\nsamples = 3\nvalue = [0, 2, 1, 0]\nclass = y[1]", fillcolor="#a3f29c"] ;
740 -> 741 ;
742 [label="gini = 0.0\nsamples = 2\nvalue = [0, 2, 0, 0]\nclass = y[1]", fillcolor="#47e539"] ;
741 -> 742 ;
743 [label="gini = 0.0\nsamples = 1\nvalue = [0, 0, 1, 0]\nclass = y[2]", fillcolor="#399de5"] ;
741 -> 743 ;
744 [label="gini = 0.0\nsamples = 4\nvalue = [0, 0, 4, 0]\nclass = y[2]", fillcolor="#399de5"] ;
740 -> 744 ;
745 [label="gini = 0.0\nsamples = 9\nvalue = [0, 0, 9, 0]\nclass = y[2]", fillcolor="#399de5"] ;
739 -> 745 ;
746 [label="gini = 0.0\nsamples = 1\nvalue = [0, 1, 0, 0]\nclass = y[1]", fillcolor="#47e539"] ;
738 -> 746 ;
747 [label="RiskAversion <= 0.5\ngini = 0.249\nsamples = 110\nvalue = [0, 16, 94, 0]\nclass = y[2]", fillcolor="#5baee9"] ;
727 -> 747 ;
748 [label="CarValue <= 0.5\ngini = 0.339\nsamples = 37\nvalue = [0, 8, 29, 0]\nclass = y[2]", fillcolor="#70b8ec"] ;
747 -> 748 ;
749 [label="Theft <= 2.0\ngini = 0.4\nsamples = 29\nvalue = [0, 8, 21, 0]\nclass = y[2]", fillcolor="#84c2ef"] ;
748 -> 749 ;
750 [label="PropCost <= 0.5\ngini = 0.465\nsamples = 19\nvalue = [0, 7, 12, 0]\nclass = y[2]", fillcolor="#acd6f4"] ;
749 -> 750 ;
751 [label="Cushioning <= 0.5\ngini = 0.32\nsamples = 10\nvalue = [0, 2, 8, 0]\nclass = y[2]", fillcolor="#6ab6ec"] ;
750 -> 751 ;
752 [label="MedCost <= 2.0\ngini = 0.198\nsamples = 9\nvalue = [0, 1, 8, 0]\nclass = y[2]", fillcolor="#52a9e8"] ;
751 -> 752 ;
753 [label="SeniorTrain <= 2.5\ngini = 0.375\nsamples = 4\nvalue = [0, 1, 3, 0]\nclass = y[2]", fillcolor="#7bbeee"] ;
752 -> 753 ;
754 [label="OtherCarCost <= 0.5\ngini = 0.444\nsamples = 3\nvalue = [0, 1, 2, 0]\nclass = y[2]", fillcolor="#9ccef2"] ;
753 -> 754 ;
755 [label="gini = 0.0\nsamples = 1\nvalue = [0, 0, 1, 0]\nclass = y[2]", fillcolor="#399de5"] ;
754 -> 755 ;
756 [label="gini = 0.5\nsamples = 2\nvalue = [0, 1, 1, 0]\nclass = y[1]", fillcolor="#ffffff"] ;
754 -> 756 ;
757 [label="gini = 0.0\nsamples = 1\nvalue = [0, 0, 1, 0]\nclass = y[2]", fillcolor="#399de5"] ;
753 -> 757 ;
758 [label="gini = 0.0\nsamples = 5\nvalue = [0, 0, 5, 0]\nclass = y[2]", fillcolor="#399de5"] ;
752 -> 758 ;
759 [label="gini = 0.0\nsamples = 1\nvalue = [0, 1, 0, 0]\nclass = y[1]", fillcolor="#47e539"] ;
751 -> 759 ;
760 [label="OtherCarCost <= 0.5\ngini = 0.494\nsamples = 9\nvalue = [0, 5, 4, 0]\nclass = y[1]", fillcolor="#dafad7"] ;
750 -> 760 ;
761 [label="ILiCost <= 0.5\ngini = 0.32\nsamples = 5\nvalue = [0, 1, 4, 0]\nclass = y[2]", fillcolor="#6ab6ec"] ;
760 -> 761 ;
762 [label="gini = 0.0\nsamples = 3\nvalue = [0, 0, 3, 0]\nclass = y[2]", fillcolor="#399de5"] ;
761 -> 762 ;
763 [label="MedCost <= 2.0\ngini = 0.5\nsamples = 2\nvalue = [0, 1, 1, 0]\nclass = y[1]", fillcolor="#ffffff"] ;
761 -> 763 ;
764 [label="gini = 0.0\nsamples = 1\nvalue = [0, 0, 1, 0]\nclass = y[2]", fillcolor="#399de5"] ;
763 -> 764 ;
765 [label="gini = 0.0\nsamples = 1\nvalue = [0, 1, 0, 0]\nclass = y[1]", fillcolor="#47e539"] ;
763 -> 765 ;
766 [label="gini = 0.0\nsamples = 4\nvalue = [0, 4, 0, 0]\nclass = y[1]", fillcolor="#47e539"] ;
760 -> 766 ;
767 [label="ILiCost <= 0.5\ngini = 0.18\nsamples = 10\nvalue = [0, 1, 9, 0]\nclass = y[2]", fillcolor="#4fa8e8"] ;
749 -> 767 ;
768 [label="gini = 0.0\nsamples = 7\nvalue = [0, 0, 7, 0]\nclass = y[2]", fillcolor="#399de5"] ;
767 -> 768 ;
769 [label="ILiCost <= 1.5\ngini = 0.444\nsamples = 3\nvalue = [0, 1, 2, 0]\nclass = y[2]", fillcolor="#9ccef2"] ;
767 -> 769 ;
770 [label="gini = 0.0\nsamples = 1\nvalue = [0, 1, 0, 0]\nclass = y[1]", fillcolor="#47e539"] ;
769 -> 770 ;
771 [label="gini = 0.0\nsamples = 2\nvalue = [0, 0, 2, 0]\nclass = y[2]", fillcolor="#399de5"] ;
769 -> 771 ;
772 [label="gini = 0.0\nsamples = 8\nvalue = [0, 0, 8, 0]\nclass = y[2]", fillcolor="#399de5"] ;
748 -> 772 ;
773 [label="Theft <= 2.0\ngini = 0.195\nsamples = 73\nvalue = [0, 8, 65, 0]\nclass = y[2]", fillcolor="#51a9e8"] ;
747 -> 773 ;
774 [label="MedCost <= 2.0\ngini = 0.122\nsamples = 46\nvalue = [0, 3, 43, 0]\nclass = y[2]", fillcolor="#47a4e7"] ;
773 -> 774 ;
775 [label="gini = 0.0\nsamples = 15\nvalue = [0, 0, 15, 0]\nclass = y[2]", fillcolor="#399de5"] ;
774 -> 775 ;
776 [label="Age <= 1.5\ngini = 0.175\nsamples = 31\nvalue = [0, 3, 28, 0]\nclass = y[2]", fillcolor="#4ea8e8"] ;
774 -> 776 ;
777 [label="RiskAversion <= 1.5\ngini = 0.236\nsamples = 22\nvalue = [0, 3, 19, 0]\nclass = y[2]", fillcolor="#58ace9"] ;
776 -> 777 ;
778 [label="gini = 0.0\nsamples = 5\nvalue = [0, 0, 5, 0]\nclass = y[2]", fillcolor="#399de5"] ;
777 -> 778 ;
779 [label="PropCost <= 0.5\ngini = 0.291\nsamples = 17\nvalue = [0, 3, 14, 0]\nclass = y[2]", fillcolor="#63b2eb"] ;
777 -> 779 ;
780 [label="SocioEcon <= 0.5\ngini = 0.408\nsamples = 7\nvalue = [0, 2, 5, 0]\nclass = y[2]", fillcolor="#88c4ef"] ;
779 -> 780 ;
781 [label="gini = 0.0\nsamples = 2\nvalue = [0, 0, 2, 0]\nclass = y[2]", fillcolor="#399de5"] ;
780 -> 781 ;
782 [label="RiskAversion <= 2.5\ngini = 0.48\nsamples = 5\nvalue = [0, 2, 3, 0]\nclass = y[2]", fillcolor="#bddef6"] ;
780 -> 782 ;
783 [label="SeniorTrain <= 2.5\ngini = 0.5\nsamples = 4\nvalue = [0, 2, 2, 0]\nclass = y[1]", fillcolor="#ffffff"] ;
782 -> 783 ;
784 [label="DrivQuality <= 2.0\ngini = 0.444\nsamples = 3\nvalue = [0, 2, 1, 0]\nclass = y[1]", fillcolor="#a3f29c"] ;
783 -> 784 ;
785 [label="OtherCarCost <= 0.5\ngini = 0.5\nsamples = 2\nvalue = [0, 1, 1, 0]\nclass = y[1]", fillcolor="#ffffff"] ;
784 -> 785 ;
786 [label="gini = 0.0\nsamples = 1\nvalue = [0, 1, 0, 0]\nclass = y[1]", fillcolor="#47e539"] ;
785 -> 786 ;
787 [label="gini = 0.0\nsamples = 1\nvalue = [0, 0, 1, 0]\nclass = y[2]", fillcolor="#399de5"] ;
785 -> 787 ;
788 [label="gini = 0.0\nsamples = 1\nvalue = [0, 1, 0, 0]\nclass = y[1]", fillcolor="#47e539"] ;
784 -> 788 ;
789 [label="gini = 0.0\nsamples = 1\nvalue = [0, 0, 1, 0]\nclass = y[2]", fillcolor="#399de5"] ;
783 -> 789 ;
790 [label="gini = 0.0\nsamples = 1\nvalue = [0, 0, 1, 0]\nclass = y[2]", fillcolor="#399de5"] ;
782 -> 790 ;
791 [label="CarValue <= 0.5\ngini = 0.18\nsamples = 10\nvalue = [0, 1, 9, 0]\nclass = y[2]", fillcolor="#4fa8e8"] ;
779 -> 791 ;
792 [label="gini = 0.0\nsamples = 7\nvalue = [0, 0, 7, 0]\nclass = y[2]", fillcolor="#399de5"] ;
791 -> 792 ;
793 [label="OtherCarCost <= 0.5\ngini = 0.444\nsamples = 3\nvalue = [0, 1, 2, 0]\nclass = y[2]", fillcolor="#9ccef2"] ;
791 -> 793 ;
794 [label="gini = 0.0\nsamples = 1\nvalue = [0, 1, 0, 0]\nclass = y[1]", fillcolor="#47e539"] ;
793 -> 794 ;
795 [label="gini = 0.0\nsamples = 2\nvalue = [0, 0, 2, 0]\nclass = y[2]", fillcolor="#399de5"] ;
793 -> 795 ;
796 [label="gini = 0.0\nsamples = 9\nvalue = [0, 0, 9, 0]\nclass = y[2]", fillcolor="#399de5"] ;
776 -> 796 ;
797 [label="CarValue <= 2.5\ngini = 0.302\nsamples = 27\nvalue = [0, 5, 22, 0]\nclass = y[2]", fillcolor="#66b3eb"] ;
773 -> 797 ;
798 [label="DrivQuality <= 2.5\ngini = 0.34\nsamples = 23\nvalue = [0, 5, 18, 0]\nclass = y[2]", fillcolor="#70b8ec"] ;
797 -> 798 ;
799 [label="CarValue <= 0.5\ngini = 0.198\nsamples = 9\nvalue = [0, 1, 8, 0]\nclass = y[2]", fillcolor="#52a9e8"] ;
798 -> 799 ;
800 [label="OtherCarCost <= 0.5\ngini = 0.444\nsamples = 3\nvalue = [0, 1, 2, 0]\nclass = y[2]", fillcolor="#9ccef2"] ;
799 -> 800 ;
801 [label="gini = 0.0\nsamples = 2\nvalue = [0, 0, 2, 0]\nclass = y[2]", fillcolor="#399de5"] ;
800 -> 801 ;
802 [label="gini = 0.0\nsamples = 1\nvalue = [0, 1, 0, 0]\nclass = y[1]", fillcolor="#47e539"] ;
800 -> 802 ;
803 [label="gini = 0.0\nsamples = 6\nvalue = [0, 0, 6, 0]\nclass = y[2]", fillcolor="#399de5"] ;
799 -> 803 ;
804 [label="AntiTheft <= 0.5\ngini = 0.408\nsamples = 14\nvalue = [0, 4, 10, 0]\nclass = y[2]", fillcolor="#88c4ef"] ;
798 -> 804 ;
805 [label="OtherCarCost <= 0.5\ngini = 0.463\nsamples = 11\nvalue = [0, 4, 7, 0]\nclass = y[2]", fillcolor="#aad5f4"] ;
804 -> 805 ;
806 [label="MakeModel <= 1.5\ngini = 0.48\nsamples = 5\nvalue = [0, 3, 2, 0]\nclass = y[1]", fillcolor="#c2f6bd"] ;
805 -> 806 ;
807 [label="gini = 0.0\nsamples = 1\nvalue = [0, 0, 1, 0]\nclass = y[2]", fillcolor="#399de5"] ;
806 -> 807 ;
808 [label="Accident <= 1.5\ngini = 0.375\nsamples = 4\nvalue = [0, 3, 1, 0]\nclass = y[1]", fillcolor="#84ee7b"] ;
806 -> 808 ;
809 [label="gini = 0.0\nsamples = 2\nvalue = [0, 2, 0, 0]\nclass = y[1]", fillcolor="#47e539"] ;
808 -> 809 ;
810 [label="Age <= 1.5\ngini = 0.5\nsamples = 2\nvalue = [0, 1, 1, 0]\nclass = y[1]", fillcolor="#ffffff"] ;
808 -> 810 ;
811 [label="gini = 0.0\nsamples = 1\nvalue = [0, 0, 1, 0]\nclass = y[2]", fillcolor="#399de5"] ;
810 -> 811 ;
812 [label="gini = 0.0\nsamples = 1\nvalue = [0, 1, 0, 0]\nclass = y[1]", fillcolor="#47e539"] ;
810 -> 812 ;
813 [label="CarValue <= 0.5\ngini = 0.278\nsamples = 6\nvalue = [0, 1, 5, 0]\nclass = y[2]", fillcolor="#61b1ea"] ;
805 -> 813 ;
814 [label="gini = 0.0\nsamples = 4\nvalue = [0, 0, 4, 0]\nclass = y[2]", fillcolor="#399de5"] ;
813 -> 814 ;
815 [label="Accident <= 0.5\ngini = 0.5\nsamples = 2\nvalue = [0, 1, 1, 0]\nclass = y[1]", fillcolor="#ffffff"] ;
813 -> 815 ;
816 [label="gini = 0.0\nsamples = 1\nvalue = [0, 1, 0, 0]\nclass = y[1]", fillcolor="#47e539"] ;
815 -> 816 ;
817 [label="gini = 0.0\nsamples = 1\nvalue = [0, 0, 1, 0]\nclass = y[2]", fillcolor="#399de5"] ;
815 -> 817 ;
818 [label="gini = 0.0\nsamples = 3\nvalue = [0, 0, 3, 0]\nclass = y[2]", fillcolor="#399de5"] ;
804 -> 818 ;
819 [label="gini = 0.0\nsamples = 4\nvalue = [0, 0, 4, 0]\nclass = y[2]", fillcolor="#399de5"] ;
797 -> 819 ;
820 [label="DrivQuality <= 2.0\ngini = 0.48\nsamples = 10\nvalue = [0, 4, 6, 0]\nclass = y[2]", fillcolor="#bddef6"] ;
726 -> 820 ;
821 [label="MedCost <= 2.0\ngini = 0.278\nsamples = 6\nvalue = [0, 1, 5, 0]\nclass = y[2]", fillcolor="#61b1ea"] ;
820 -> 821 ;
822 [label="gini = 0.0\nsamples = 4\nvalue = [0, 0, 4, 0]\nclass = y[2]", fillcolor="#399de5"] ;
821 -> 822 ;
823 [label="Theft <= 3.5\ngini = 0.5\nsamples = 2\nvalue = [0, 1, 1, 0]\nclass = y[1]", fillcolor="#ffffff"] ;
821 -> 823 ;
824 [label="gini = 0.0\nsamples = 1\nvalue = [0, 0, 1, 0]\nclass = y[2]", fillcolor="#399de5"] ;
823 -> 824 ;
825 [label="gini = 0.0\nsamples = 1\nvalue = [0, 1, 0, 0]\nclass = y[1]", fillcolor="#47e539"] ;
823 -> 825 ;
826 [label="Theft <= 3.5\ngini = 0.375\nsamples = 4\nvalue = [0, 3, 1, 0]\nclass = y[1]", fillcolor="#84ee7b"] ;
820 -> 826 ;
827 [label="gini = 0.0\nsamples = 3\nvalue = [0, 3, 0, 0]\nclass = y[1]", fillcolor="#47e539"] ;
826 -> 827 ;
828 [label="gini = 0.0\nsamples = 1\nvalue = [0, 0, 1, 0]\nclass = y[2]", fillcolor="#399de5"] ;
826 -> 828 ;
829 [label="MakeModel <= 1.5\ngini = 0.069\nsamples = 28\nvalue = [0, 1, 27, 0]\nclass = y[2]", fillcolor="#40a1e6"] ;
725 -> 829 ;
830 [label="Airbag <= 2.5\ngini = 0.5\nsamples = 2\nvalue = [0, 1, 1, 0]\nclass = y[1]", fillcolor="#ffffff"] ;
829 -> 830 ;
831 [label="gini = 0.0\nsamples = 1\nvalue = [0, 1, 0, 0]\nclass = y[1]", fillcolor="#47e539"] ;
830 -> 831 ;
